{"learner":{"attributes":{"best_iteration":"75","best_score":"0.07889264822006226"},"feature_names":["area_px","perimeter_px","length_px","width_px","aspect_ratio","solidity","extent","equivalent_diameter_px","eccentricity","circularity","compactness","rectangularity","convexity","feret_max","feret_min","feret_ratio","ellipse_major","ellipse_minor","ellipse_ratio","hu_0","hu_1","hu_2","hu_3","hu_4","hu_5","hu_6","wp_0","wp_1","wp_2","wp_3","wp_4","wp_5","wp_6","wp_7","wpn_0","wpn_1","wpn_2","wpn_3","wpn_4","wpn_5","wpn_6","wpn_7","area_cm2","length_cm","width_cm","camera_height_cm","px_per_cm","depth_mean_mm","depth_std_mm","depth_min_mm","depth_max_mm","depth_median_mm","height_mean_cm","height_max_cm","height_std_cm","volume_proxy_cm3","height_area_ratio","hp_0","hp_1","hp_2","hp_3","hp_4","hp_5","hp_6","hp_7","hpn_0","hpn_1","hpn_2","hpn_3","hpn_4","hpn_5","hpn_6","hpn_7","cross_section_area_cm2"],"feature_types":[],"gradient_booster":{"model":{"cats":{"enc":[],"feature_segments":[],"sorted_idx":[]},"gbtree_model_param":{"num_parallel_tree":"1","num_trees":"126"},"iteration_indptr":[0,1,2,3,4,5,6,7,8,9,10,11,12,13,14,15,16,17,18,19,20,21,22,23,24,25,26,27,28,29,30,31,32,33,34,35,36,37,38,39,40,41,42,43,44,45,46,47,48,49,50,51,52,53,54,55,56,57,58,59,60,61,62,63,64,65,66,67,68,69,70,71,72,73,74,75,76,77,78,79,80,81,82,83,84,85,86,87,88,89,90,91,92,93,94,95,96,97,98,99,100,101,102,103,104,105,106,107,108,109,110,111,112,113,114,115,116,117,118,119,120,121,122,123,124,125,126],"tree_info":[0,0,0,0,0,0,0,0,0,0,0,0,0,0,0,0,0,0,0,0,0,0,0,0,0,0,0,0,0,0,0,0,0,0,0,0,0,0,0,0,0,0,0,0,0,0,0,0,0,0,0,0,0,0,0,0,0,0,0,0,0,0,0,0,0,0,0,0,0,0,0,0,0,0,0,0,0,0,0,0,0,0,0,0,0,0,0,0,0,0,0,0,0,0,0,0,0,0,0,0,0,0,0,0,0,0,0,0,0,0,0,0,0,0,0,0,0,0,0,0,0,0,0,0,0,0],"trees":[{"base_weights":[-1.7136516E-3,-8.874072E-3,3.297181E-2,4.2189248E-2,-8.300246E-3,-4.099504E-2,4.59404E-2,1.8348988E-2,-2.9186897E-3,-9.952711E-4,-2.5942826E-3,3.814064E-2,7.418097E-2,-3.362001E-2,3.9229535E-2,4.09145E-4,2.1270972E-3,4.051992E-3,1.0070343E-3,-2.5942826E-3,-3.3151856E-4,7.171705E-4,2.4610083E-3],"categories":[],"categories_nodes":[],"categories_segments":[],"categories_sizes":[],"default_left":[0,0,0,0,0,0,0,0,0,0,0,0,0,0,0,0,0,0,0,0,0,0,0],"id":0,"left_children":[1,-1,3,5,7,9,11,13,-1,-1,-1,15,17,19,21,-1,-1,-1,-1,-1,-1,-1,-1],"loss_changes":[1.7753069E0,0E0,9.313178E-2,6.4028114E-2,6.152032E-2,3.163917E-4,3.811896E-2,3.392923E-2,0E0,0E0,0E0,1.9186303E-2,1.2182206E-2,3.5076654E-3,4.1281916E-3,0E0,0E0,0E0,0E0,0E0,0E0,0E0,0E0],"parents":[2147483647,0,0,2,2,3,3,4,4,5,5,6,6,7,7,11,11,12,12,13,13,14,14],"right_children":[2,-1,4,6,8,10,12,14,-1,-1,-1,16,18,20,22,-1,-1,-1,-1,-1,-1,-1,-1],"split_conditions":[4.96318E0,-8.874072E-3,2.6267514E0,2.3524081E2,9.244524E-1,5.104853E2,1.297E3,6.754834E-1,-2.9186897E-3,-9.952711E-4,-2.5942826E-3,2.531679E1,3.4208958E0,5.5157117E2,8.871608E0,4.09145E-4,2.1270972E-3,4.051992E-3,1.0070343E-3,-2.5942826E-3,-3.3151856E-4,7.171705E-4,2.4610083E-3],"split_indices":[46,0,20,2,5,1,49,69,0,0,0,59,4,2,54,0,0,0,0,0,0,0,0],"split_type":[0,0,0,0,0,0,0,0,0,0,0,0,0,0,0,0,0,0,0,0,0,0,0],"sum_hessian":[2.89E2,4.7E1,2.42E2,1.98E2,4.4E1,8E0,1.9E2,2.9E1,1.5E1,4E0,4E0,1.51E2,3.9E1,8E0,2.1E1,2E1,1.31E2,3.4E1,5E0,4E0,4E0,7E0,1.4E1],"tree_param":{"num_deleted":"0","num_feature":"74","num_nodes":"23","size_leaf_vector":"1"}},{"base_weights":[-9.2669047E-4,-8.33221E-3,3.2317523E-2,-6.8225716E-3,4.2761054E-2,1.7048202E-2,-2.8077594E-3,3.421964E-2,7.251494E-2,-6.7642923E-3,4.046913E-2,-2.0886362E-3,3.7217796E-2,3.9518075E-3,9.81758E-4,-2.1647639E-3,2.1530674E-3,3.280203E-3,8.8005385E-4,2.0321812E-4,2.1540502E-3],"categories":[],"categories_nodes":[],"categories_segments":[],"categories_sizes":[],"default_left":[0,0,0,0,0,0,0,0,0,0,0,0,0,0,0,0,0,0,0,0,0],"id":1,"left_children":[1,-1,3,5,7,9,-1,11,13,15,17,-1,19,-1,-1,-1,-1,-1,-1,-1,-1],"loss_changes":[1.582345E0,0E0,9.834494E-2,6.1406415E-2,4.448372E-2,2.0130668E-2,0E0,3.5456866E-2,1.1599854E-2,3.4629922E-2,8.35941E-3,0E0,2.7344942E-2,0E0,0E0,0E0,0E0,0E0,0E0,0E0,0E0],"parents":[2147483647,0,0,2,2,3,3,4,4,5,5,7,7,8,8,9,9,10,10,12,12],"right_children":[2,-1,4,6,8,10,-1,12,14,16,18,-1,20,-1,-1,-1,-1,-1,-1,-1,-1],"split_conditions":[3.482403E1,-8.33221E-3,1.3416681E0,9.244524E-1,1.302E3,9.76E2,-2.8077594E-3,2.3524081E2,1.944E3,4.0685708E3,3.8891706E-1,-2.0886362E-3,2.675725E1,3.9518075E-3,9.81758E-4,-2.1647639E-3,2.1530674E-3,3.280203E-3,8.8005385E-4,2.0321812E-4,2.1540502E-3],"split_indices":[42,0,4,5,49,49,0,2,50,73,72,0,59,0,0,0,0,0,0,0,0],"split_type":[0,0,0,0,0,0,0,0,0,0,0,0,0,0,0,0,0,0,0,0,0],"sum_hessian":[2.85E2,4.7E1,2.38E2,5E1,1.88E2,3.4E1,1.6E1,1.48E2,4E1,1.7E1,1.7E1,5E0,1.43E2,3.5E1,5E0,1E1,7E0,7E0,1E1,2.2E1,1.21E2],"tree_param":{"num_deleted":"0","num_feature":"74","num_nodes":"21","size_leaf_vector":"1"}},{"base_weights":[1.3043344E-3,-7.915194E-3,3.177495E-2,-3.8781748E-3,4.1926257E-2,-2.2783564E-2,3.3592504E-2,2.9397298E-2,6.0437452E-2,1.9879222E-3,-3.695058E-2,4.820095E-2,1.6085647E-2,-1.28508005E-2,3.719802E-2,6.473249E-2,1.03903E-6,7.724781E-4,-2.4224296E-3,1.1573147E-3,3.080771E-3,5.4433254E-5,1.2117763E-3,3.3210215E-4,-2.2929923E-3,1.9677453E-4,2.1879168E-3,1.5006006E-3,3.4675335E-3],"categories":[],"categories_nodes":[],"categories_segments":[],"categories_sizes":[],"default_left":[0,0,0,0,0,0,0,0,0,0,0,0,0,0,0,0,0,0,0,0,0,0,0,0,0,0,0,0,0],"id":2,"left_children":[1,-1,3,5,7,9,11,13,15,-1,17,19,21,23,25,27,-1,-1,-1,-1,-1,-1,-1,-1,-1,-1,-1,-1,-1],"loss_changes":[1.3655058E0,0E0,8.595756E-2,3.820235E-2,3.9999336E-2,3.3338226E-2,3.1852536E-3,3.763283E-2,1.8294036E-2,0E0,1.9153427E-2,7.5106695E-4,9.426093E-4,1.2278704E-2,2.0081073E-2,7.828504E-3,0E0,0E0,0E0,0E0,0E0,0E0,0E0,0E0,0E0,0E0,0E0,0E0,0E0],"parents":[2147483647,0,0,2,2,3,3,4,4,5,5,6,6,7,7,8,8,10,10,11,11,12,12,13,13,14,14,15,15],"right_children":[2,-1,4,6,8,10,12,14,16,-1,18,20,22,24,26,28,-1,-1,-1,-1,-1,-1,-1,-1,-1,-1,-1,-1,-1],"split_conditions":[1.609497E1,-7.915194E-3,1.3479055E0,1.004E3,1.109E3,1.4499936E2,1.879E3,2.2939697E2,3.889026E2,1.9879222E-3,1.6033461E2,9.138348E-1,4.4589785E-1,1.801E3,2.9188862E1,3.902944E-1,1.03903E-6,7.724781E-4,-2.4224296E-3,1.1573147E-3,3.080771E-3,5.4433254E-5,1.2117763E-3,3.3210215E-4,-2.2929923E-3,1.9677453E-4,2.1879168E-3,1.5006006E-3,3.4675335E-3],"split_indices":[43,0,4,49,49,26,50,3,27,0,33,36,9,50,61,41,0,0,0,0,0,0,0,0,0,0,0,0,0],"split_type":[0,0,0,0,0,0,0,0,0,0,0,0,0,0,0,0,0,0,0,0,0,0,0,0,0,0,0,0,0],"sum_hessian":[2.79E2,4.4E1,2.35E2,5.2E1,1.83E2,3.5E1,1.7E1,1.11E2,7.2E1,6E0,2.9E1,8E0,9E0,1.7E1,9.4E1,6.7E1,5E0,5E0,2.4E1,4E0,4E0,4E0,5E0,1.1E1,6E0,1.6E1,7.8E1,9E0,5.8E1],"tree_param":{"num_deleted":"0","num_feature":"74","num_nodes":"29","size_leaf_vector":"1"}},{"base_weights":[1.3099392E-3,-7.5216643E-3,2.8051507E-2,2.080655E-2,6.3197814E-2,-6.293825E-3,2.9431155E-2,3.5056912E-3,8.586457E-4,1.3644397E-2,-2.5693232E-3,-1.8024631E-3,3.229999E-2,-6.601423E-4,1.3192649E-3,6.4820127E-4,2.0328423E-3],"categories":[],"categories_nodes":[],"categories_segments":[],"categories_sizes":[],"default_left":[0,0,0,0,0,0,0,0,0,0,0,0,0,0,0,0,0],"id":3,"left_children":[1,-1,3,5,7,9,11,-1,-1,13,-1,-1,15,-1,-1,-1,-1],"loss_changes":[1.1919465E0,0E0,6.150341E-2,4.9266204E-2,1.1292025E-2,4.693097E-2,3.0995443E-2,0E0,0E0,1.2794275E-2,0E0,0E0,2.3659632E-2,0E0,0E0,0E0,0E0],"parents":[2147483647,0,0,2,2,3,3,4,4,5,5,6,6,9,9,12,12],"right_children":[2,-1,4,6,8,10,12,-1,-1,14,-1,-1,16,-1,-1,-1,-1],"split_conditions":[1.609497E1,-7.5216643E-3,1.302E3,1.3416681E0,1.832E3,5.228942E-1,8.65685E0,3.5056912E-3,8.586457E-4,9.9167914E2,-2.5693232E-3,-1.8024631E-3,3.2744026E1,-6.601423E-4,1.3192649E-3,6.4820127E-4,2.0328423E-3],"split_indices":[43,0,49,4,50,9,44,0,0,42,0,0,61,0,0,0,0],"split_type":[0,0,0,0,0,0,0,0,0,0,0,0,0,0,0,0,0],"sum_hessian":[2.92E2,4.3E1,2.49E2,2.08E2,4.1E1,5E1,1.58E2,3.5E1,6E0,3.5E1,1.5E1,6E0,1.52E2,1.1E1,2.4E1,4.7E1,1.05E2],"tree_param":{"num_deleted":"0","num_feature":"74","num_nodes":"17","size_leaf_vector":"1"}},{"base_weights":[1.5910954E-3,-7.2649023E-3,2.6949028E-2,3.4238122E-2,-9.550327E-3,-3.0775236E-2,3.723284E-2,1.4645363E-2,-2.4714253E-3,-0E0,-2.51893E-3,3.0474762E-2,6.096283E-2,2.9897526E-2,-1.6976815E-3,7.4663054E-5,1.7783968E-3,3.300157E-3,7.766822E-4,2.357612E-3,5.377958E-4],"categories":[],"categories_nodes":[],"categories_segments":[],"categories_sizes":[],"default_left":[0,0,0,0,0,0,0,0,0,0,0,0,0,0,0,0,0,0,0,0,0],"id":4,"left_children":[1,-1,3,5,7,9,11,13,-1,-1,-1,15,17,19,-1,-1,-1,-1,-1,-1,-1],"loss_changes":[1.1387978E0,0E0,7.00122E-2,4.3654263E-2,4.3526452E-2,5.756868E-3,3.074494E-2,2.1729283E-2,0E0,0E0,0E0,2.3931563E-2,8.463323E-3,6.179977E-3,0E0,0E0,0E0,0E0,0E0,0E0,0E0],"parents":[2147483647,0,0,2,2,3,3,4,4,5,5,6,6,7,7,11,11,12,12,13,13],"right_children":[2,-1,4,6,8,10,12,14,-1,-1,-1,16,18,20,-1,-1,-1,-1,-1,-1,-1],"split_conditions":[4.96318E0,-7.2649023E-3,2.6415327E0,2.3524081E2,5.228942E-1,1.9483723E1,1.297E3,7.147901E-1,-2.4714253E-3,-0E0,-2.51893E-3,2.675725E1,1.5236253E2,9.748972E-1,-1.6976815E-3,7.4663054E-5,1.7783968E-3,3.300157E-3,7.766822E-4,2.357612E-3,5.377958E-4],"split_indices":[46,0,20,2,9,43,49,41,0,0,0,59,48,38,0,0,0,0,0,0,0],"split_type":[0,0,0,0,0,0,0,0,0,0,0,0,0,0,0,0,0,0,0,0,0],"sum_hessian":[3.04E2,4.4E1,2.6E2,2.17E2,4.3E1,9E0,2.08E2,2.7E1,1.6E1,4E0,5E0,1.64E2,4.4E1,2.1E1,6E0,2.5E1,1.39E2,3.9E1,5E0,1E1,1.1E1],"tree_param":{"num_deleted":"0","num_feature":"74","num_nodes":"21","size_leaf_vector":"1"}},{"base_weights":[2.266042E-3,-6.8178014E-3,2.656848E-2,1.9616272E-2,5.7001404E-2,2.6096424E-2,-6.8418696E-3,2.5351359E-2,3.3421405E-3,-1.2568786E-3,2.8512225E-2,1.1894826E-2,-2.293959E-3,1.9644455E-3,4.3803375E-5,-4.389854E-5,1.6587538E-3,-1.2745261E-3,1.6719623E-3],"categories":[],"categories_nodes":[],"categories_segments":[],"categories_sizes":[],"default_left":[0,0,0,0,0,0,0,0,0,0,0,0,0,0,0,0,0,0,0],"id":5,"left_children":[1,-1,3,5,7,9,11,13,-1,-1,15,17,-1,-1,-1,-1,-1,-1,-1],"loss_changes":[1.01655E0,0E0,5.2490696E-2,3.6547616E-2,1.2023121E-2,2.1791562E-2,3.160563E-2,3.9985636E-3,0E0,0E0,2.2689983E-2,2.4289794E-2,0E0,0E0,0E0,0E0,0E0,0E0,0E0],"parents":[2147483647,0,0,2,2,3,3,4,4,5,5,6,6,7,7,10,10,11,11],"right_children":[2,-1,4,6,8,10,12,14,-1,-1,16,18,-1,-1,-1,-1,-1,-1,-1],"split_conditions":[3.482403E1,-6.8178014E-3,1.302E3,2.6415327E0,1.4613708E2,4.7839985E1,9.244524E-1,9.6513563E-1,3.3421405E-3,-1.2568786E-3,2.531679E1,8.3807725E-1,-2.293959E-3,1.9644455E-3,4.3803375E-5,-4.389854E-5,1.6587538E-3,-1.2745261E-3,1.6719623E-3],"split_indices":[42,0,49,20,3,33,5,66,0,0,59,5,0,0,0,0,0,0,0],"split_type":[0,0,0,0,0,0,0,0,0,0,0,0,0,0,0,0,0,0,0],"sum_hessian":[3E2,4.4E1,2.56E2,2.1E2,4.6E1,1.69E2,4.1E1,1.2E1,3.4E1,7E0,1.62E2,2.8E1,1.3E1,7E0,5E0,2.2E1,1.4E2,1E1,1.8E1],"tree_param":{"num_deleted":"0","num_feature":"74","num_nodes":"19","size_leaf_vector":"1"}},{"base_weights":[5.815432E-4,-6.4877123E-3,2.446174E-2,3.1153414E-2,-9.512558E-3,-2.6721133E-2,3.367724E-2,1.2341564E-2,-2.2527985E-3,-0E0,-2.3179555E-3,2.6013674E-2,5.1554576E-2,-1.1896684E-3,2.743303E-2,-4.6980297E-4,1.5034917E-3,2.8415394E-3,-9.888602E-5,2.210506E-3,-3.107428E-4],"categories":[],"categories_nodes":[],"categories_segments":[],"categories_sizes":[],"default_left":[0,0,0,0,0,0,0,0,0,0,0,0,0,0,0,0,0,0,0,0,0],"id":6,"left_children":[1,-1,3,5,7,9,11,13,-1,-1,-1,15,17,-1,19,-1,-1,-1,-1,-1,-1],"loss_changes":[9.0473E-1,0E0,5.643961E-2,3.1058908E-2,3.2730777E-2,4.3196646E-3,2.5010005E-2,1.4867679E-2,0E0,0E0,0E0,2.0740762E-2,1.704289E-2,0E0,1.138047E-2,0E0,0E0,0E0,0E0,0E0,0E0],"parents":[2147483647,0,0,2,2,3,3,4,4,5,5,6,6,7,7,11,11,12,12,14,14],"right_children":[2,-1,4,6,8,10,12,14,-1,-1,-1,16,18,-1,20,-1,-1,-1,-1,-1,-1],"split_conditions":[1.609497E1,-6.4877123E-3,2.6415327E0,2.3524081E2,9.244524E-1,1.9752975E2,1.14E3,6.754834E-1,-2.2527985E-3,-0E0,-2.3179555E-3,2.531679E1,6.8998737E2,-1.1896684E-3,8.851843E-1,-4.6980297E-4,1.5034917E-3,2.8415394E-3,-9.888602E-5,2.210506E-3,-3.107428E-4],"split_indices":[43,0,20,2,5,2,49,69,0,0,0,59,16,0,40,0,0,0,0,0,0],"split_type":[0,0,0,0,0,0,0,0,0,0,0,0,0,0,0,0,0,0,0,0,0],"sum_hessian":[2.89E2,4.4E1,2.45E2,2.05E2,4E1,8E0,1.97E2,2.5E1,1.5E1,4E0,4E0,1.4E2,5.7E1,7E0,1.8E1,1.4E1,1.26E2,5.2E1,5E0,1.2E1,6E0],"tree_param":{"num_deleted":"0","num_feature":"74","num_nodes":"21","size_leaf_vector":"1"}},{"base_weights":[-8.6868054E-4,-6.1955E-3,2.3803014E-2,5.3535096E-2,1.7661748E-2,8.932285E-4,3.0669058E-3,2.4168333E-2,-4.9949675E-3,-1.1439304E-3,2.5909329E-2,-1.8003456E-2,3.2529373E-2,-8.759935E-5,1.4828399E-3,8.553037E-5,-2.253479E-3,2.0725743E-3,4.8740619E-4],"categories":[],"categories_nodes":[],"categories_segments":[],"categories_sizes":[],"default_left":[0,0,0,0,0,0,0,0,0,0,0,0,0,0,0,0,0,0,0],"id":7,"left_children":[1,-1,3,5,7,-1,-1,9,11,-1,13,15,17,-1,-1,-1,-1,-1,-1],"loss_changes":[8.903568E-1,0E0,4.289511E-2,9.524055E-3,3.0385703E-2,0E0,0E0,1.3646528E-2,2.2894593E-2,0E0,1.6294636E-2,1.9186102E-2,1.5230114E-3,0E0,0E0,0E0,0E0,0E0,0E0],"parents":[2147483647,0,0,2,2,3,3,4,4,7,7,8,8,10,10,11,11,12,12],"right_children":[2,-1,4,6,8,-1,-1,10,12,-1,14,16,18,-1,-1,-1,-1,-1,-1],"split_conditions":[3.482403E1,-6.1955E-3,4.03E1,5.1397114E1,9.9762547E-1,8.932285E-4,3.0669058E-3,2.3524081E2,3.277024E2,-1.1439304E-3,2.531679E1,7.752036E-1,2.203965E5,-8.759935E-5,1.4828399E-3,8.553037E-5,-2.253479E-3,2.0725743E-3,4.8740619E-4],"split_indices":[42,0,53,31,37,0,0,2,33,0,59,12,0,0,0,0,0,0,0],"split_type":[0,0,0,0,0,0,0,0,0,0,0,0,0,0,0,0,0,0,0],"sum_hessian":[2.91E2,4.8E1,2.43E2,4E1,2.03E2,8E0,3.2E1,1.58E2,4.5E1,5E0,1.53E2,3.4E1,1.1E1,1.8E1,1.35E2,2E1,1.4E1,7E0,4E0],"tree_param":{"num_deleted":"0","num_feature":"74","num_nodes":"19","size_leaf_vector":"1"}},{"base_weights":[-1.5601862E-3,-5.894087E-3,2.1481581E-2,9.3203625E-3,3.6954626E-2,1.8286753E-2,-1.41127715E-2,4.6086885E-2,-3.8451457E-4,8.800433E-3,3.5909127E-2,-2.3144996E-2,1.8877644E-3,4.9946263E-2,1.0375046E-2,-2.9474476E-3,1.971967E-2,9.05379E-4,-1.097726E-3,2.0555486E-3,-7.620564E-5,-1.4753885E-3,8.830332E-4,8.3903543E-4,2.5688547E-3,-7.4222E-5,1.0097722E-3,-8.3313975E-4,1.8550465E-3],"categories":[],"categories_nodes":[],"categories_segments":[],"categories_sizes":[],"default_left":[0,0,0,0,0,0,0,0,0,0,0,0,0,0,0,0,0,0,0,0,0,0,0,0,0,0,0,0,0],"id":8,"left_children":[1,-1,3,5,7,9,11,13,15,17,19,21,-1,23,25,-1,27,-1,-1,-1,-1,-1,-1,-1,-1,-1,-1,-1,-1],"loss_changes":[7.941713E-1,0E0,4.5671076E-2,2.9715307E-2,3.7301734E-2,1.6288385E-2,1.8998615E-2,1.0869399E-2,2.7457334E-2,1.9823454E-2,7.273786E-3,9.4672665E-3,0E0,2.1577328E-3,1.3817375E-3,0E0,1.1572929E-2,0E0,0E0,0E0,0E0,0E0,0E0,0E0,0E0,0E0,0E0,0E0,0E0],"parents":[2147483647,0,0,2,2,3,3,4,4,5,5,6,6,7,7,8,8,9,9,10,10,11,11,13,13,14,14,16,16],"right_children":[2,-1,4,6,8,10,12,14,16,18,20,22,-1,24,26,-1,28,-1,-1,-1,-1,-1,-1,-1,-1,-1,-1,-1,-1],"split_conditions":[1.609497E1,-5.894087E-3,4.0818584E1,9.974879E-1,9.1312635E-1,3.4624133E3,3.6175632E2,7.295238E2,2.0978612E-1,5.788671E1,7.795778E-1,5.250197E2,1.8877644E-3,3.818713E1,9.179434E0,-2.9474476E-3,5.0432888E1,9.05379E-4,-1.097726E-3,2.0555486E-3,-7.620564E-5,-1.4753885E-3,8.830332E-4,8.3903543E-4,2.5688547E-3,-7.4222E-5,1.0097722E-3,-8.3313975E-4,1.8550465E-3],"split_indices":[43,0,10,37,71,73,33,13,9,57,19,30,0,48,46,0,43,0,0,0,0,0,0,0,0,0,0,0,0],"split_type":[0,0,0,0,0,0,0,0,0,0,0,0,0,0,0,0,0,0,0,0,0,0,0,0,0,0,0,0,0],"sum_hessian":[2.94E2,4.8E1,2.46E2,1.39E2,1.07E2,1.01E2,3.8E1,8.6E1,2.1E1,6.7E1,3.4E1,3.3E1,5E0,7.7E1,9E0,5E0,1.6E1,5.2E1,1.5E1,3E1,4E0,2.9E1,4E0,4E0,7.3E1,4E0,5E0,5E0,1.1E1],"tree_param":{"num_deleted":"0","num_feature":"74","num_nodes":"29","size_leaf_vector":"1"}},{"base_weights":[-3.1487942E-3,-5.687039E-3,2.0200523E-2,-3.2683413E-3,2.6870247E-2,-2.4007168E-2,3.3724964E-2,-1.0898053E-2,2.9281016E-2,1.5273113E-3,-3.4114044E-2,2.5935993E-3,1.9194108E-2,9.014248E-4,-1.4432444E-3,2.283853E-2,4.5503564E-2,-2.0822282E-3,1.2686047E-4,1.5906118E-3,4.4701225E-4,-6.21701E-5,1.4715118E-3,2.7115697E-3,6.256411E-4],"categories":[],"categories_nodes":[],"categories_segments":[],"categories_sizes":[],"default_left":[0,0,0,0,0,0,0,0,0,0,0,0,0,0,0,0,0,0,0,0,0,0,0,0,0],"id":9,"left_children":[1,-1,3,5,7,9,11,13,15,-1,17,-1,19,-1,-1,21,23,-1,-1,-1,-1,-1,-1,-1,-1],"loss_changes":[7.701605E-1,0E0,3.8830422E-2,4.2908337E-2,1.7984658E-2,2.0926852E-2,3.5675373E-3,6.865377E-3,1.71943E-2,0E0,9.052824E-3,0E0,9.900653E-4,0E0,0E0,2.127228E-2,1.3050847E-2,0E0,0E0,0E0,0E0,0E0,0E0,0E0,0E0],"parents":[2147483647,0,0,2,2,3,3,4,4,5,5,6,6,7,7,8,8,10,10,12,12,15,15,16,16],"right_children":[2,-1,4,6,8,10,12,14,16,-1,18,-1,20,-1,-1,22,24,-1,-1,-1,-1,-1,-1,-1,-1],"split_conditions":[8.2292816E2,-5.687039E-3,6.7051965E-1,9.76E2,4.7839985E1,1.4499936E2,1.5307957E1,3.518656E1,1.16E3,1.5273113E-3,2.8629866E1,2.5935993E-3,1.023E3,9.014248E-4,-1.4432444E-3,2.9188862E1,1.932E3,-2.0822282E-3,1.2686047E-4,1.5906118E-3,4.4701225E-4,-6.21701E-5,1.4715118E-3,2.7115697E-3,6.256411E-4],"split_indices":[47,0,8,49,33,26,64,32,49,0,54,0,49,0,0,61,50,0,0,0,0,0,0,0,0],"split_type":[0,0,0,0,0,0,0,0,0,0,0,0,0,0,0,0,0,0,0,0,0,0,0,0,0],"sum_hessian":[2.96E2,5.1E1,2.45E2,5.4E1,1.91E2,3.5E1,1.9E1,1.1E1,1.8E2,5E0,3E1,7E0,1.2E1,4E0,7E0,1.31E2,4.9E1,2.5E1,5E0,4E0,8E0,2.8E1,1.03E2,3.8E1,1.1E1],"tree_param":{"num_deleted":"0","num_feature":"74","num_nodes":"25","size_leaf_vector":"1"}},{"base_weights":[1.1269189E-3,-5.31713E-3,2.0201728E-2,2.5661808E-2,-6.9549857E-3,-2.372488E-2,2.8273648E-2,1.5996128E-2,-2.1792937E-3,-2.2070946E-3,-0E0,2.3455653E-2,4.695013E-2,-9.1888447E-4,2.9445851E-2,-1.4152577E-4,1.3824019E-3,2.65119E-4,2.5576297E-3,1.8989928E-3,3.3713572E-4],"categories":[],"categories_nodes":[],"categories_segments":[],"categories_sizes":[],"default_left":[0,0,0,0,0,0,0,0,0,0,0,0,0,0,0,0,0,0,0,0,0],"id":10,"left_children":[1,-1,3,5,7,9,11,13,-1,-1,-1,15,17,-1,19,-1,-1,-1,-1,-1,-1],"loss_changes":[6.121751E-1,0E0,3.802812E-2,2.806218E-2,3.712405E-2,5.499468E-3,1.6371295E-2,1.3134424E-2,0E0,0E0,0E0,1.828932E-2,6.165147E-3,0E0,3.1716619E-3,0E0,0E0,0E0,0E0,0E0,0E0],"parents":[2147483647,0,0,2,2,3,3,4,4,5,5,6,6,7,7,11,11,12,12,14,14],"right_children":[2,-1,4,6,8,10,12,14,-1,-1,-1,16,18,-1,20,-1,-1,-1,-1,-1,-1],"split_conditions":[3.482403E1,-5.31713E-3,2.6415327E0,2.5426837E2,9.244524E-1,1.114E3,1.297E3,5.5926096E-1,-2.1792937E-3,-2.2070946E-3,-0E0,2.531679E1,6.523938E0,-9.1888447E-4,9.775343E-1,-1.4152577E-4,1.3824019E-3,2.65119E-4,2.5576297E-3,1.8989928E-3,3.3713572E-4],"split_indices":[42,0,20,2,5,49,49,68,0,0,0,59,59,0,70,0,0,0,0,0,0],"split_type":[0,0,0,0,0,0,0,0,0,0,0,0,0,0,0,0,0,0,0,0,0],"sum_hessian":[2.97E2,4.4E1,2.53E2,2.11E2,4.2E1,1E1,2.01E2,2.6E1,1.6E1,5E0,5E0,1.62E2,3.9E1,7E0,1.9E1,2.2E1,1.4E2,4E0,3.5E1,1.3E1,6E0],"tree_param":{"num_deleted":"0","num_feature":"74","num_nodes":"21","size_leaf_vector":"1"}},{"base_weights":[-6.2455505E-4,-5.0684116E-3,1.923081E-2,1.11527145E-2,3.7561525E-2,-2.9598694E-2,1.4849903E-2,4.791442E-2,1.7017392E-2,-1.1123312E-2,-2.5355995E-3,-4.3266984E-3,2.2650786E-2,7.574498E-4,2.560814E-3,2.5828248E-2,-2.3927834E-4,-1.5842508E-3,4.8315278E-4,6.862755E-4,-1.4039117E-3,-6.013065E-4,1.3363132E-3,1.8687043E-4,1.6368296E-3],"categories":[],"categories_nodes":[],"categories_segments":[],"categories_sizes":[],"default_left":[0,0,0,0,0,0,0,0,0,0,0,0,0,0,0,0,0,0,0,0,0,0,0,0,0],"id":11,"left_children":[1,-1,3,5,7,9,11,13,15,17,-1,19,21,-1,-1,23,-1,-1,-1,-1,-1,-1,-1,-1,-1],"loss_changes":[5.708567E-1,0E0,3.4336343E-2,2.5453215E-2,1.3849072E-2,4.278628E-3,2.3318782E-2,3.6452487E-3,5.3287013E-3,4.373022E-3,0E0,1.9823458E-2,1.6014159E-2,0E0,0E0,2.4125213E-3,0E0,0E0,0E0,0E0,0E0,0E0,0E0,0E0,0E0],"parents":[2147483647,0,0,2,2,3,3,4,4,5,5,6,6,7,7,8,8,9,9,11,11,12,12,15,15],"right_children":[2,-1,4,6,8,10,12,14,16,18,-1,20,22,-1,-1,24,-1,-1,-1,-1,-1,-1,-1,-1,-1],"split_conditions":[1.609497E1,-5.0684116E-3,1.124E3,3.9194986E2,1.905E3,8.821979E-1,1.3479055E0,3.8170055E-1,3.15528E0,9.1744675E1,-2.5355995E-3,5.961374E2,3.4508774E-1,7.574498E-4,2.560814E-3,3.902944E-1,-2.3927834E-4,-1.5842508E-3,4.8315278E-4,6.862755E-4,-1.4039117E-3,-6.013065E-4,1.3363132E-3,1.8687043E-4,1.6368296E-3],"split_indices":[43,0,49,2,50,40,4,41,21,26,0,2,41,0,0,41,0,0,0,0,0,0,0,0,0],"split_type":[0,0,0,0,0,0,0,0,0,0,0,0,0,0,0,0,0,0,0,0,0,0,0,0,0],"sum_hessian":[2.83E2,4.6E1,2.37E2,1.66E2,7.1E1,1.3E1,1.53E2,4.6E1,2.5E1,8E0,5E0,4.4E1,1.09E2,5E0,4.1E1,1.8E1,7E0,4E0,4E0,2.5E1,1.9E1,1.1E1,9.8E1,5E0,1.3E1],"tree_param":{"num_deleted":"0","num_feature":"74","num_nodes":"25","size_leaf_vector":"1"}},{"base_weights":[-1.2206516E-3,-4.8900344E-3,1.8468976E-2,2.3354134E-2,-4.97187E-3,2.5036516E-2,-8.9255715E-4,1.2050211E-2,-1.9687593E-3,1.51877375E-2,3.209869E-2,-1.6212754E-2,2.4666036E-2,-4.012711E-4,1.0368284E-3,5.510812E-4,1.8472314E-3,-1.5585541E-3,-0E0,-8.733025E-5,1.600168E-3],"categories":[],"categories_nodes":[],"categories_segments":[],"categories_sizes":[],"default_left":[0,0,0,0,0,0,0,0,0,0,0,0,0,0,0,0,0,0,0,0,0],"id":12,"left_children":[1,-1,3,5,7,9,-1,11,-1,13,15,17,19,-1,-1,-1,-1,-1,-1,-1,-1],"loss_changes":[5.388578E-1,0E0,2.7210318E-2,1.4036782E-2,2.4757985E-2,1.2115732E-2,0E0,1.0468133E-2,0E0,1.0726808E-2,1.014407E-2,2.4925014E-3,4.2344267E-3,0E0,0E0,0E0,0E0,0E0,0E0,0E0,0E0],"parents":[2147483647,0,0,2,2,3,3,4,4,5,5,7,7,9,9,10,10,11,11,12,12],"right_children":[2,-1,4,6,8,10,-1,12,-1,14,16,18,20,-1,-1,-1,-1,-1,-1,-1,-1],"split_conditions":[1.7964914E1,-4.8900344E-3,2.6415327E0,3.403337E0,9.244524E-1,-4.031216E0,-8.9255715E-4,6.754834E-1,-1.9687593E-3,5.197928E-1,5.736033E-1,4.6554932E2,7.0918465E-1,-4.012711E-4,1.0368284E-3,5.510812E-4,1.8472314E-3,-1.5585541E-3,-0E0,-8.733025E-5,1.600168E-3],"split_indices":[48,0,20,15,5,25,0,69,0,69,67,14,35,0,0,0,0,0,0,0,0],"split_type":[0,0,0,0,0,0,0,0,0,0,0,0,0,0,0,0,0,0,0,0,0],"sum_hessian":[2.81E2,4.7E1,2.34E2,1.94E2,4E1,1.87E2,7E0,2.7E1,1.3E1,8E1,1.07E2,8E0,1.9E1,1.5E1,6.5E1,2.1E1,8.6E1,4E0,4E0,4E0,1.5E1],"tree_param":{"num_deleted":"0","num_feature":"74","num_nodes":"21","size_leaf_vector":"1"}},{"base_weights":[-8.988978E-4,-4.5992397E-3,1.7430764E-2,2.2434995E-2,-6.1339163E-3,-1.9036895E-3,2.5959829E-2,-1.9837568E-2,2.010207E-2,-1.9793833E-2,2.7699923E-2,2.052817E-2,3.9414782E-2,1.4001828E-3,-3.3970222E-2,1.6784713E-3,1.4359796E-4,-2.1444985E-3,-1.1938806E-4,1.794507E-3,5.1658385E-4,-1.7486833E-3,1.1340621E-3,2.1838653E-3,-2.4154414E-4,-2.0570082E-3,-0E0],"categories":[],"categories_nodes":[],"categories_segments":[],"categories_sizes":[],"default_left":[0,0,0,0,0,0,0,0,0,0,0,0,0,0,0,0,0,0,0,0,0,0,0,0,0,0,0],"id":13,"left_children":[1,-1,3,5,7,9,11,13,15,17,19,21,23,-1,25,-1,-1,-1,-1,-1,-1,-1,-1,-1,-1,-1,-1],"loss_changes":[4.881948E-1,0E0,2.8955944E-2,1.7533734E-2,1.5855871E-2,1.423916E-2,1.1454016E-2,2.0618536E-2,3.0198363E-3,6.2790327E-3,5.894741E-4,1.5966255E-2,9.840764E-3,0E0,5.6163073E-3,0E0,0E0,0E0,0E0,0E0,0E0,0E0,0E0,0E0,0E0,0E0,0E0],"parents":[2147483647,0,0,2,2,3,3,4,4,5,5,6,6,7,7,8,8,9,9,10,10,11,11,12,12,14,14],"right_children":[2,-1,4,6,8,10,12,14,16,18,20,22,24,-1,26,-1,-1,-1,-1,-1,-1,-1,-1,-1,-1,-1,-1],"split_conditions":[3.482403E1,-4.5992397E-3,2.6415327E0,3.4690717E-1,9.76E2,9.163027E-1,1.14E3,1.2096081E0,1.794E3,1.89E3,1.5376437E0,3.6458E2,4.3615714E2,1.4001828E-3,4.6159375E2,1.6784713E-3,1.4359796E-4,-2.1444985E-3,-1.1938806E-4,1.794507E-3,5.1658385E-4,-1.7486833E-3,1.1340621E-3,2.1838653E-3,-2.4154414E-4,-2.0570082E-3,-0E0],"split_indices":[42,0,20,41,49,39,49,15,50,50,18,2,14,0,27,0,0,0,0,0,0,0,0,0,0,0,0],"split_type":[0,0,0,0,0,0,0,0,0,0,0,0,0,0,0,0,0,0,0,0,0,0,0,0,0,0,0],"sum_hessian":[2.9E2,4.8E1,2.42E2,2E2,4.2E1,2.5E1,1.75E2,2.8E1,1.4E1,1.6E1,9E0,1.27E2,4.8E1,6E0,2.2E1,7E0,7E0,6E0,1E1,5E0,4E0,4E0,1.23E2,4.4E1,4E0,1.8E1,4E0],"tree_param":{"num_deleted":"0","num_feature":"74","num_nodes":"27","size_leaf_vector":"1"}},{"base_weights":[1.3740326E-3,-4.3388135E-3,1.6040582E-2,8.8333655E-3,3.3733446E-2,1.6979517E-2,-7.867215E-3,4.212563E-2,1.05663175E-2,-2.3681875E-3,2.3496013E-2,4.3077767E-3,-1.752062E-3,4.5976073E-2,2.279857E-4,1.3164877E-3,-1.3034535E-3,4.144508E-4,-1.6980813E-3,-9.309417E-5,1.3827984E-3,-1.5968645E-3,8.091676E-4,2.4275377E-3,9.7410864E-4,2.9967815E-4,-4.4002017E-4],"categories":[],"categories_nodes":[],"categories_segments":[],"categories_sizes":[],"default_left":[0,0,0,0,0,0,0,0,0,0,0,0,0,0,0,0,0,0,0,0,0,0,0,0,0,0,0],"id":14,"left_children":[1,-1,3,5,7,9,11,13,15,17,19,21,-1,23,-1,-1,25,-1,-1,-1,-1,-1,-1,-1,-1,-1,-1],"loss_changes":[3.626856E-1,0E0,3.0007783E-2,2.376057E-2,1.2443133E-2,1.5018187E-2,1.9316364E-2,6.5172687E-3,4.0267506E-3,1.0639165E-2,9.592354E-3,1.7576555E-2,0E0,1.443401E-3,0E0,0E0,7.372786E-4,0E0,0E0,0E0,0E0,0E0,0E0,0E0,0E0,0E0,0E0],"parents":[2147483647,0,0,2,2,3,3,4,4,5,5,6,6,7,7,8,8,9,9,10,10,11,11,13,13,16,16],"right_children":[2,-1,4,6,8,10,12,14,16,18,20,22,-1,24,-1,-1,26,-1,-1,-1,-1,-1,-1,-1,-1,-1,-1],"split_conditions":[3.482403E1,-4.3388135E-3,1.128E3,7.752036E-1,1.905E3,2.9435175E1,7.753097E-1,1.418E3,3.463367E-1,2.648621E1,7.488549E1,3.6663077E2,-1.752062E-3,3.1665377E1,2.279857E-4,1.3164877E-3,1.0741E4,4.144508E-4,-1.6980813E-3,-9.309417E-5,1.3827984E-3,-1.5968645E-3,8.091676E-4,2.4275377E-3,9.7410864E-4,2.9967815E-4,-4.4002017E-4],"split_indices":[42,0,49,12,50,61,19,49,9,61,48,2,0,61,0,0,0,0,0,0,0,0,0,0,0,0,0],"split_type":[0,0,0,0,0,0,0,0,0,0,0,0,0,0,0,0,0,0,0,0,0,0,0,0,0,0,0],"sum_hessian":[2.79E2,3.9E1,2.4E2,1.72E2,6.8E1,1.16E2,5.6E1,4.9E1,1.9E1,2.9E1,8.7E1,3.9E1,1.7E1,4.4E1,5E0,8E0,1.1E1,2.2E1,7E0,1.2E1,7.5E1,9E0,3E1,3.9E1,5E0,5E0,6E0],"tree_param":{"num_deleted":"0","num_feature":"74","num_nodes":"27","size_leaf_vector":"1"}},{"base_weights":[5.322583E-4,-4.1557825E-3,1.6750034E-2,2.1284781E-2,-5.220657E-3,1.54554155E-2,3.5318807E-2,-2.699467E-2,1.5346386E-2,-2.4439793E-2,1.931393E-2,4.0833488E-2,9.943067E-3,-1.6103628E-5,-3.9593678E-2,3.1166218E-2,-7.49205E-4,-2.0179595E-4,-2.2952498E-3,2.120658E-4,1.1421669E-3,2.2068736E-3,4.616677E-4,-0E0,1.1072182E-3,-2.3607265E-3,-7.2166196E-4,4.3411483E-4,1.8821901E-3],"categories":[],"categories_nodes":[],"categories_segments":[],"categories_sizes":[],"default_left":[0,0,0,0,0,0,0,0,0,0,0,0,0,0,0,0,0,0,0,0,0,0,0,0,0,0,0,0,0],"id":15,"left_children":[1,-1,3,5,7,9,11,13,15,17,19,21,23,-1,25,27,-1,-1,-1,-1,-1,-1,-1,-1,-1,-1,-1,-1,-1],"loss_changes":[3.9278105E-1,0E0,2.4482228E-2,1.5471898E-2,1.9339493E-2,2.2741519E-2,7.2027E-3,6.645106E-3,1.1184929E-2,5.0089736E-3,6.707523E-3,3.965847E-3,1.265489E-3,0E0,1.3864767E-3,1.394527E-3,0E0,0E0,0E0,0E0,0E0,0E0,0E0,0E0,0E0,0E0,0E0,0E0,0E0],"parents":[2147483647,0,0,2,2,3,3,4,4,5,5,6,6,7,7,8,8,9,9,10,10,11,11,12,12,14,14,15,15],"right_children":[2,-1,4,6,8,10,12,14,16,18,20,22,24,-1,26,28,-1,-1,-1,-1,-1,-1,-1,-1,-1,-1,-1,-1,-1],"split_conditions":[1.609497E1,-4.1557825E-3,4.2447183E2,1.14E3,5.1062904E1,3.9194986E2,1.944E3,7.4170077E-1,7.795778E-1,8.821979E-1,8.872641E1,3.1462753E1,2.2237172E2,-1.6103628E-5,3.4211372E3,5.741903E-1,-7.49205E-4,-2.0179595E-4,-2.2952498E-3,2.120658E-4,1.1421669E-3,2.2068736E-3,4.616677E-4,-0E0,1.1072182E-3,-2.3607265E-3,-7.2166196E-4,4.3411483E-4,1.8821901E-3],"split_indices":[43,0,27,49,58,2,50,71,19,40,48,61,48,0,42,6,0,0,0,0,0,0,0,0,0,0,0,0,0],"split_type":[0,0,0,0,0,0,0,0,0,0,0,0,0,0,0,0,0,0,0,0,0,0,0,0,0,0,0,0,0],"sum_hessian":[2.88E2,4.6E1,2.42E2,2.01E2,4.1E1,1.44E2,5.7E1,2E1,2.1E1,1.2E1,1.32E2,4.6E1,1.1E1,7E0,1.3E1,1.4E1,7E0,7E0,5E0,2.6E1,1.06E2,4.1E1,5E0,7E0,4E0,9E0,4E0,4E0,1E1],"tree_param":{"num_deleted":"0","num_feature":"74","num_nodes":"29","size_leaf_vector":"1"}},{"base_weights":[-1.3815409E-3,-3.957281E-3,1.4403278E-2,1.8723514E-2,-6.4439354E-3,2.309765E-2,1.8066369E-3,9.927301E-3,-1.6123124E-3,3.1769123E-2,1.4108952E-2,-2.263714E-2,2.4400678E-2,-2.6335563E-3,1.5015971E-3,1.7112868E-3,-4.6449823E-5,1.4491257E-3,1.6190099E-4,-1.7642546E-4,-2.8095979E-3,1.5273008E-3,-3.0133631E-5,-1.6510537E-3,8.9505315E-4],"categories":[],"categories_nodes":[],"categories_segments":[],"categories_sizes":[],"default_left":[0,0,0,0,0,0,0,0,0,0,0,0,0,0,0,0,0,0,0,0,0,0,0,0,0],"id":16,"left_children":[1,-1,3,5,7,9,11,13,-1,15,17,19,21,23,-1,-1,-1,-1,-1,-1,-1,-1,-1,-1,-1],"loss_changes":[3.4180266E-1,0E0,2.1048434E-2,1.3916597E-2,1.7439935E-2,1.09406635E-2,2.3213629E-2,6.6663628E-3,0E0,6.469585E-3,1.2034039E-2,1.2028251E-2,3.6982317E-3,1.072625E-2,0E0,0E0,0E0,0E0,0E0,0E0,0E0,0E0,0E0,0E0,0E0],"parents":[2147483647,0,0,2,2,3,3,4,4,5,5,6,6,7,7,9,9,10,10,11,11,12,12,13,13],"right_children":[2,-1,4,6,8,10,12,14,-1,16,18,20,22,24,-1,-1,-1,-1,-1,-1,-1,-1,-1,-1,-1],"split_conditions":[3.482403E1,-3.957281E-3,2.7487144E0,9.1312635E-1,9.244524E-1,3.0785906E-1,2.6422412E2,5.2661076E0,-1.6123124E-3,4.6184353E1,9.21E2,2.1725323E1,3.9970234E1,9.76E2,1.5015971E-3,1.7112868E-3,-4.6449823E-5,1.4491257E-3,1.6190099E-4,-1.7642546E-4,-2.8095979E-3,1.5273008E-3,-3.0133631E-5,-1.6510537E-3,8.9505315E-4],"split_indices":[42,0,20,71,5,9,30,22,0,44,49,44,44,49,0,0,0,0,0,0,0,0,0,0,0],"split_type":[0,0,0,0,0,0,0,0,0,0,0,0,0,0,0,0,0,0,0,0,0,0,0,0,0],"sum_hessian":[2.76E2,4.6E1,2.3E2,1.91E2,3.9E1,1.51E2,4E1,2.4E1,1.5E1,7.5E1,7.6E1,1.9E1,2.1E1,1.5E1,9E0,7E1,5E0,3.1E1,4.5E1,1.3E1,6E0,1.7E1,4E0,6E0,9E0],"tree_param":{"num_deleted":"0","num_feature":"74","num_nodes":"25","size_leaf_vector":"1"}},{"base_weights":[-1.209941E-3,-6.922692E-2,1.456247E-2,-3.724598E-3,-6.951033E-4,1.9984324E-2,-7.708279E-3,1.4250782E-2,3.4461E-2,1.5335098E-2,-1.8932227E-2,-1.9194447E-3,1.9652138E-2,4.074881E-2,1.2177485E-2,2.3884274E-2,-2.2700538E-4,-3.7898086E-3,-3.6334462E-2,3.7388943E-4,-1.3110292E-3,-1.2377279E-3,1.1411305E-3,2.1873096E-3,4.808687E-4,-2.1879836E-4,1.4209934E-3,3.963112E-4,1.5221136E-3,-1.2726247E-3,2.8653233E-4,-2.2901015E-3,-9.447592E-4],"categories":[],"categories_nodes":[],"categories_segments":[],"categories_sizes":[],"default_left":[0,0,0,0,0,0,0,0,0,0,0,0,0,0,0,0,0,0,0,0,0,0,0,0,0,0,0,0,0,0,0,0,0],"id":17,"left_children":[1,3,5,-1,-1,7,9,11,13,15,17,19,21,23,25,27,-1,29,31,-1,-1,-1,-1,-1,-1,-1,-1,-1,-1,-1,-1,-1,-1],"loss_changes":[3.0193642E-1,1.3518751E-2,2.7807515E-2,0E0,0E0,1.4294274E-2,1.1964994E-2,1.1918765E-2,6.1203577E-3,2.8506287E-3,7.6299254E-3,8.147858E-3,1.4765445E-2,2.6848465E-3,3.8600813E-3,5.262038E-4,0E0,4.0553724E-3,7.9909526E-4,0E0,0E0,0E0,0E0,0E0,0E0,0E0,0E0,0E0,0E0,0E0,0E0,0E0,0E0],"parents":[2147483647,0,0,1,1,2,2,5,5,6,6,7,7,8,8,9,9,10,10,11,11,12,12,13,13,14,14,15,15,17,17,18,18],"right_children":[2,4,6,-1,-1,8,10,12,14,16,18,20,22,24,26,28,-1,30,32,-1,-1,-1,-1,-1,-1,-1,-1,-1,-1,-1,-1,-1,-1],"split_conditions":[2.6394114E1,9.95E2,4.4973473E1,-3.724598E-3,-6.951033E-4,1.14E3,8.220537E-1,4.3737442E1,1.882E3,5.0188376E2,3.259725E1,1.6053207E1,6.1733128E1,1.399E3,3.574063E1,4.9140087E1,-2.2700538E-4,-9.494233E0,2.165924E3,3.7388943E-4,-1.3110292E-3,-1.2377279E-3,1.1411305E-3,2.1873096E-3,4.808687E-4,-2.1879836E-4,1.4209934E-3,3.963112E-4,1.5221136E-3,-1.2726247E-3,2.8653233E-4,-2.2901015E-3,-9.447592E-4],"split_indices":[43,49,44,0,0,49,36,43,50,29,63,54,48,49,10,44,0,25,42,0,0,0,0,0,0,0,0,0,0,0,0,0,0],"split_type":[0,0,0,0,0,0,0,0,0,0,0,0,0,0,0,0,0,0,0,0,0,0,0,0,0,0,0,0,0,0,0,0,0],"sum_hessian":[2.79E2,5.2E1,2.27E2,4.7E1,5E0,1.83E2,4.4E1,1.33E2,5E1,1.4E1,3E1,3.3E1,1E2,3.8E1,1.2E1,1E1,4E0,1.7E1,1.3E1,2.4E1,9E0,6E0,9.4E1,3.4E1,4E0,6E0,6E0,4E0,6E0,5E0,1.2E1,7E0,6E0],"tree_param":{"num_deleted":"0","num_feature":"74","num_nodes":"33","size_leaf_vector":"1"}},{"base_weights":[-6.603582E-4,-3.6316335E-3,1.3052484E-2,1.7457262E-2,-4.3633888E-3,-1.4728565E-3,1.8884497E-2,-1.3423474E-2,2.168635E-2,-1.0407737E-3,2.0330815E-2,1.0248338E-3,-2.0736523E-2,1.7861596E-4,1.4114499E-3,1.2687616E-3,4.960342E-4,1.4774443E-5,-1.3518654E-3],"categories":[],"categories_nodes":[],"categories_segments":[],"categories_sizes":[],"default_left":[0,0,0,0,0,0,0,0,0,0,0,0,0,0,0,0,0,0,0],"id":18,"left_children":[1,-1,3,5,7,-1,9,11,13,-1,15,-1,17,-1,-1,-1,-1,-1,-1],"loss_changes":[2.8973177E-1,0E0,1.9078515E-2,1.3641257E-2,1.2009121E-2,0E0,1.1442766E-2,9.853696E-3,1.1218218E-3,0E0,9.162724E-3,0E0,4.515988E-3,0E0,0E0,0E0,0E0,0E0,0E0],"parents":[2147483647,0,0,2,2,3,3,4,4,6,6,7,7,8,8,10,10,12,12],"right_children":[2,-1,4,6,8,-1,10,12,14,-1,16,-1,18,-1,-1,-1,-1,-1,-1],"split_conditions":[3.14E2,-3.6316335E-3,4.4973473E1,-1.2426293E1,4.713569E2,-1.4728565E-3,3.6112064E1,1.0460305E0,2.9571605E0,-1.0407737E-3,9.564593E-1,1.0248338E-3,8.2513374E-1,1.7861596E-4,1.4114499E-3,1.2687616E-3,4.960342E-4,1.4774443E-5,-1.3518654E-3],"split_indices":[49,0,44,25,32,0,33,64,21,0,38,0,36,0,0,0,0,0,0],"split_type":[0,0,0,0,0,0,0,0,0,0,0,0,0,0,0,0,0,0,0],"sum_hessian":[2.91E2,4.6E1,2.45E2,1.96E2,4.9E1,5E0,1.91E2,3.7E1,1.2E1,6E0,1.85E2,6E0,3.1E1,4E0,8E0,1.23E2,6.2E1,7E0,2.4E1],"tree_param":{"num_deleted":"0","num_feature":"74","num_nodes":"19","size_leaf_vector":"1"}},{"base_weights":[-6.0791225E-4,-3.4089684E-3,1.2369409E-2,7.926911E-3,3.215515E-2,-8.060565E-3,1.3199588E-2,1.7722195E-3,4.138554E-4,1.3707675E-2,-2.1046065E-2,2.0378731E-2,-1.2214369E-3,1.2177522E-3,-9.4879855E-4,8.2416396E-4,-1.7329658E-3,1.2084099E-3,2.9385867E-4,-6.335524E-4,7.631171E-4],"categories":[],"categories_nodes":[],"categories_segments":[],"categories_sizes":[],"default_left":[0,0,0,0,0,0,0,0,0,0,0,0,0,0,0,0,0,0,0,0,0],"id":19,"left_children":[1,-1,3,5,7,9,11,-1,-1,13,15,17,19,-1,-1,-1,-1,-1,-1,-1,-1],"loss_changes":[2.5570142E-1,0E0,2.0791426E-2,1.710144E-2,2.7251989E-3,1.4495451E-2,1.5953122E-2,0E0,0E0,7.127854E-3,1.7101744E-2,5.162727E-3,9.792852E-3,0E0,0E0,0E0,0E0,0E0,0E0,0E0,0E0],"parents":[2147483647,0,0,2,2,3,3,4,4,5,5,6,6,9,9,10,10,11,11,12,12],"right_children":[2,-1,4,6,8,10,12,-1,-1,14,16,18,20,-1,-1,-1,-1,-1,-1,-1,-1],"split_conditions":[3.482403E1,-3.4089684E-3,1.302E3,1.3479055E0,1.42E3,1.2521333E0,1.311E3,1.7722195E-3,4.138554E-4,9.244524E-1,1.4499936E2,9.9284875E-1,2.634008E2,1.2177522E-3,-9.4879855E-4,8.2416396E-4,-1.7329658E-3,1.2084099E-3,2.9385867E-4,-6.335524E-4,7.631171E-4],"split_indices":[42,0,49,4,49,15,51,0,0,5,26,66,33,0,0,0,0,0,0,0,0],"split_type":[0,0,0,0,0,0,0,0,0,0,0,0,0,0,0,0,0,0,0,0,0],"sum_hessian":[2.89E2,4.6E1,2.43E2,2E2,4.3E1,4.9E1,1.51E2,3.7E1,6E0,1.8E1,3.1E1,1.01E2,5E1,1.4E1,4E0,8E0,2.3E1,7.9E1,2.2E1,3E1,2E1],"tree_param":{"num_deleted":"0","num_feature":"74","num_nodes":"21","size_leaf_vector":"1"}},{"base_weights":[-6.9860613E-4,-6.0746107E-2,1.2717426E-2,-4.4040434E-4,-3.2262492E-3,1.7238168E-2,-4.696574E-3,2.4626877E-2,9.947495E-3,-2.031384E-2,1.1333246E-2,2.6850339E-2,-5.396147E-4,-3.7557152E-3,1.610477E-2,-4.044734E-3,-3.3255592E-2,2.5511729E-2,-1.0367497E-3,1.6083503E-3,5.7764957E-4,-6.6921656E-4,1.0078469E-3,3.9337008E-4,1.3108886E-3,-1.2070107E-3,3.2288625E-4,-5.5464025E-4,-2.0005715E-3,-0E0,1.605738E-3],"categories":[],"categories_nodes":[],"categories_segments":[],"categories_sizes":[],"default_left":[0,0,0,0,0,0,0,0,0,0,0,0,0,0,0,0,0,0,0,0,0,0,0,0,0,0,0,0,0,0,0],"id":20,"left_children":[1,3,5,-1,-1,7,9,11,13,15,17,19,-1,21,23,25,27,29,-1,-1,-1,-1,-1,-1,-1,-1,-1,-1,-1,-1,-1],"loss_changes":[2.38099E-1,9.296775E-3,1.9178912E-2,0E0,0E0,9.752065E-3,1.2837127E-2,7.853158E-3,8.537046E-3,4.9668066E-3,1.1943727E-2,6.42962E-3,0E0,7.33968E-3,5.2008945E-3,3.076391E-3,1.1413135E-3,2.7237413E-3,0E0,0E0,0E0,0E0,0E0,0E0,0E0,0E0,0E0,0E0,0E0,0E0,0E0],"parents":[2147483647,0,0,1,1,2,2,5,5,6,6,7,7,8,8,9,9,10,10,11,11,13,13,14,14,15,15,16,16,17,17],"right_children":[2,4,6,-1,-1,8,10,12,14,16,18,20,-1,22,24,26,28,30,-1,-1,-1,-1,-1,-1,-1,-1,-1,-1,-1,-1,-1],"split_conditions":[2.346844E1,7.1033844E1,4.1637515E2,-4.4040434E-4,-3.2262492E-3,3.0785906E-1,5.5992886E1,3.403337E0,6.135916E-1,7.4170077E-1,9.279733E-1,1.9768967E1,-5.396147E-4,6.3613975E-1,7.979976E-1,2.8126519E3,3.414219E2,8.670547E-1,-1.0367497E-3,1.6083503E-3,5.7764957E-4,-6.6921656E-4,1.0078469E-3,3.9337008E-4,1.3108886E-3,-1.2070107E-3,3.2288625E-4,-5.5464025E-4,-2.0005715E-3,-0E0,1.605738E-3],"split_indices":[43,3,27,0,0,9,59,15,6,71,5,54,0,34,71,1,26,5,0,0,0,0,0,0,0,0,0,0,0,0,0],"split_type":[0,0,0,0,0,0,0,0,0,0,0,0,0,0,0,0,0,0,0,0,0,0,0,0,0,0,0,0,0,0,0],"sum_hessian":[2.93E2,5.3E1,2.4E2,4E0,4.9E1,1.91E2,4.9E1,9.3E1,9.8E1,2.5E1,2.4E1,8.8E1,5E0,3E1,6.8E1,1.2E1,1.3E1,1.7E1,7E0,6.4E1,2.4E1,2.2E1,8E0,3.9E1,2.9E1,4E0,8E0,4E0,9E0,4E0,1.3E1],"tree_param":{"num_deleted":"0","num_feature":"74","num_nodes":"31","size_leaf_vector":"1"}},{"base_weights":[3.9536692E-4,-3.091116E-3,1.256896E-2,-5.6378557E-3,1.7417016E-2,-1.6693678E-2,1.896511E-2,-8.219077E-4,1.8848669E-2,-3.0331165E-2,8.998118E-3,1.6314641E-3,3.6008349E-3,2.1789221E-2,3.8876308E-3,1.48065E-4,-1.8818862E-3,1.4054736E-3,-1.260097E-3,4.2918912E-4,-5.1139855E-6,1.1418074E-3,-5.883526E-4,7.326658E-4,-2.3720991E-4],"categories":[],"categories_nodes":[],"categories_segments":[],"categories_sizes":[],"default_left":[0,0,0,0,0,0,0,0,0,0,0,0,0,0,0,0,0,0,0,0,0,0,0,0,0],"id":21,"left_children":[1,-1,3,5,7,9,11,-1,13,15,17,-1,19,21,23,-1,-1,-1,-1,-1,-1,-1,-1,-1,-1],"loss_changes":[2.1766196E-1,0E0,2.1488488E-2,1.4166189E-2,9.5914975E-3,1.3099628E-2,2.879247E-3,0E0,7.753372E-3,6.2963013E-3,9.234409E-3,0E0,2.5176478E-4,5.754441E-3,3.1422914E-3,0E0,0E0,0E0,0E0,0E0,0E0,0E0,0E0,0E0,0E0],"parents":[2147483647,0,0,2,2,3,3,4,4,5,5,6,6,8,8,9,9,10,10,12,12,13,13,14,14],"right_children":[2,-1,4,6,8,10,12,-1,14,16,18,-1,20,22,24,-1,-1,-1,-1,-1,-1,-1,-1,-1,-1],"split_conditions":[1.609497E1,-3.091116E-3,1.3416681E0,1.004E3,2.3524081E2,4.0685708E3,1.5307957E1,-8.219077E-4,2.3169458E3,1.2490592E0,9.210301E-1,1.6314641E-3,1.05E3,3.7360399E0,1.5963194E0,1.48065E-4,-1.8818862E-3,1.4054736E-3,-1.260097E-3,4.2918912E-4,-5.1139855E-6,1.1418074E-3,-5.883526E-4,7.326658E-4,-2.3720991E-4],"split_indices":[43,0,4,49,2,73,64,0,42,15,5,0,49,15,18,0,0,0,0,0,0,0,0,0,0],"split_type":[0,0,0,0,0,0,0,0,0,0,0,0,0,0,0,0,0,0,0,0,0,0,0,0,0],"sum_hessian":[2.86E2,4.6E1,2.4E2,5E1,1.9E2,3.5E1,1.5E1,7E0,1.83E2,2.3E1,1.2E1,7E0,8E0,1.52E2,3.1E1,4E0,1.9E1,8E0,4E0,4E0,4E0,1.48E2,4E0,1.4E1,1.7E1],"tree_param":{"num_deleted":"0","num_feature":"74","num_nodes":"25","size_leaf_vector":"1"}},{"base_weights":[4.736791E-4,-2.9363572E-3,1.1210881E-2,2.2583324E-3,1.8440276E-2,-2.42585E-2,7.64319E-3,2.520191E-2,8.904526E-3,1.175487E-3,-1.961534E-3,1.576481E-2,-1.1039281E-2,2.7387062E-2,-5.3078885E-4,1.7305597E-3,4.586105E-3,9.742464E-4,-4.631585E-4,-1.2680226E-3,8.853495E-4,-0E0,1.4405696E-3,6.139997E-4,-3.0045997E-4],"categories":[],"categories_nodes":[],"categories_segments":[],"categories_sizes":[],"default_left":[0,0,0,0,0,0,0,0,0,0,0,0,0,0,0,0,0,0,0,0,0,0,0,0,0],"id":22,"left_children":[1,-1,3,5,7,9,11,13,15,-1,-1,17,19,21,-1,-1,23,-1,-1,-1,-1,-1,-1,-1,-1],"loss_changes":[1.8642901E-1,0E0,1.5867025E-2,1.6154459E-2,8.267906E-3,1.466821E-2,1.463582E-2,6.641552E-3,5.999017E-3,0E0,0E0,6.5208822E-3,1.246432E-2,2.6829913E-3,0E0,0E0,4.3754936E-3,0E0,0E0,0E0,0E0,0E0,0E0,0E0,0E0],"parents":[2147483647,0,0,2,2,3,3,4,4,5,5,6,6,7,7,8,8,11,11,12,12,13,13,16,16],"right_children":[2,-1,4,6,8,10,12,14,16,-1,-1,18,20,22,-1,-1,24,-1,-1,-1,-1,-1,-1,-1,-1],"split_conditions":[3.482403E1,-2.9363572E-3,1.008E3,5.1779224E2,3.1090185E-1,5.1399178E1,4.4973473E1,4.31351E2,4.848808E1,1.175487E-3,-1.961534E-3,7.826675E-1,1.1462101E5,1.0104481E2,-5.3078885E-4,1.7305597E-3,1.5685954E0,9.742464E-4,-4.631585E-4,-1.2680226E-3,8.853495E-4,-0E0,1.4405696E-3,6.139997E-4,-3.0045997E-4],"split_indices":[42,0,49,2,9,48,44,28,26,0,0,19,55,3,0,0,18,0,0,0,0,0,0,0,0],"split_type":[0,0,0,0,0,0,0,0,0,0,0,0,0,0,0,0,0,0,0,0,0,0,0,0,0],"sum_hessian":[2.92E2,4.4E1,2.48E2,1.12E2,1.36E2,1.8E1,9.4E1,7.8E1,5.8E1,4E0,1.4E1,6.6E1,2.8E1,7.4E1,4E0,7E0,5.1E1,5.8E1,8E0,1.9E1,9E0,4E0,7E1,3E1,2.1E1],"tree_param":{"num_deleted":"0","num_feature":"74","num_nodes":"25","size_leaf_vector":"1"}},{"base_weights":[-6.825342E-4,-5.2449197E-2,1.1497075E-2,-3.2373657E-4,-2.7866E-3,-1.2315739E-3,1.5125606E-2,2.2374868E-2,-9.122878E-3,7.0222765E-3,2.0038202E-2,4.5350983E-4,1.4153257E-3,-2.0130554E-2,1.2043561E-2,-8.103788E-3,1.2897258E-2,1.0287487E-2,2.6284393E-2,-3.9166963E-4,-2.1371697E-3,1.3603711E-3,1.1286374E-4,9.438586E-4,-8.3269255E-4,9.592012E-4,-3.3347512E-4,-8.9343096E-4,7.6038094E-4,1.5234329E-3,7.213968E-4],"categories":[],"categories_nodes":[],"categories_segments":[],"categories_sizes":[],"default_left":[0,0,0,0,0,0,0,0,0,0,0,0,0,0,0,0,0,0,0,0,0,0,0,0,0,0,0,0,0,0,0],"id":23,"left_children":[1,3,5,-1,-1,7,9,11,13,15,17,-1,-1,19,21,23,25,27,29,-1,-1,-1,-1,-1,-1,-1,-1,-1,-1,-1,-1],"loss_changes":[1.8196538E-1,7.3179603E-3,1.0918975E-2,0E0,0E0,9.758456E-3,6.8338066E-3,3.9542885E-4,9.643046E-3,6.4618904E-3,6.1852224E-3,0E0,0E0,6.667396E-3,1.7215086E-3,4.905922E-3,6.649697E-3,6.6175894E-3,2.4353452E-3,0E0,0E0,0E0,0E0,0E0,0E0,0E0,0E0,0E0,0E0,0E0,0E0],"parents":[2147483647,0,0,1,1,2,2,5,5,6,6,7,7,8,8,9,9,10,10,13,13,14,14,15,15,16,16,17,17,18,18],"right_children":[2,4,6,-1,-1,8,10,12,14,16,18,-1,-1,20,22,24,26,28,30,-1,-1,-1,-1,-1,-1,-1,-1,-1,-1,-1,-1],"split_conditions":[2.346844E1,7.3392654E1,1.3479055E0,-3.2373657E-4,-2.7866E-3,3.106138E-1,4.906002E-1,8.174398E-1,1.004E3,5.612677E-1,-4.031216E0,4.5350983E-4,1.4153257E-3,8.851843E-1,7.364548E-1,2.8070176E-3,5.0672497E1,2.531679E1,7.504488E1,-3.9166963E-4,-2.1371697E-3,1.3603711E-3,1.1286374E-4,9.438586E-4,-8.3269255E-4,9.592012E-4,-3.3347512E-4,-8.9343096E-4,7.6038094E-4,1.5234329E-3,7.213968E-4],"split_indices":[43,17,4,0,0,34,41,69,49,69,25,0,0,40,12,61,64,59,43,0,0,0,0,0,0,0,0,0,0,0,0],"split_type":[0,0,0,0,0,0,0,0,0,0,0,0,0,0,0,0,0,0,0,0,0,0,0,0,0,0,0,0,0,0,0],"sum_hessian":[2.86E2,5.4E1,2.32E2,4E0,5E1,5.1E1,1.81E2,1.2E1,3.9E1,7E1,1.11E2,5E0,7E0,2.6E1,1.3E1,1.9E1,5.1E1,4.5E1,6.6E1,1.8E1,8E0,4E0,9E0,4E0,1.5E1,3.9E1,1.2E1,6E0,3.9E1,4.7E1,1.9E1],"tree_param":{"num_deleted":"0","num_feature":"74","num_nodes":"31","size_leaf_vector":"1"}},{"base_weights":[-7.228364E-4,-2.656423E-3,8.36285E-3,3.428527E-3,1.9288385E-2,-2.1079803E-2,6.4949538E-3,2.2608178E-2,-3.413266E-4,1.928314E-4,-3.6780775E-2,-7.318653E-3,1.1011383E-2,-0E0,2.7551774E-2,-2.1988587E-3,-7.9551927E-4,1.2154247E-3,-8.4480876E-4,-1.1064707E-3,6.3888764E-4,5.771115E-4,-8.156756E-4,1.966881E-4,1.4550294E-3],"categories":[],"categories_nodes":[],"categories_segments":[],"categories_sizes":[],"default_left":[0,0,0,0,0,0,0,0,0,0,0,0,0,0,0,0,0,0,0,0,0,0,0,0,0],"id":24,"left_children":[1,-1,3,5,7,9,11,13,-1,-1,15,17,19,21,23,-1,-1,-1,-1,-1,-1,-1,-1,-1,-1],"loss_changes":[1.3849673E-1,0E0,1.3022501E-2,1.2917381E-2,6.9010574E-3,7.91009E-3,9.725293E-3,7.752795E-3,0E0,0E0,5.0372817E-4,1.1847167E-2,7.038297E-3,2.6625684E-3,1.6036518E-3,0E0,0E0,0E0,0E0,0E0,0E0,0E0,0E0,0E0,0E0],"parents":[2147483647,0,0,2,2,3,3,4,4,5,5,6,6,7,7,10,10,11,11,12,12,13,13,14,14],"right_children":[2,-1,4,6,8,10,12,14,-1,-1,16,18,20,22,24,-1,-1,-1,-1,-1,-1,-1,-1,-1,-1],"split_conditions":[3.482403E1,-2.656423E-3,1.124E3,2.531679E1,4.0713162E2,7.937135E-1,4.3737442E1,3.902944E-1,-3.413266E-4,1.928314E-4,3.4323695E4,1.373E3,5.662492E-1,6.297446E-1,3.8079193E-1,-2.1988587E-3,-7.9551927E-4,1.2154247E-3,-8.4480876E-4,-1.1064707E-3,6.3888764E-4,5.771115E-4,-8.156756E-4,1.966881E-4,1.4550294E-3],"split_indices":[42,0,49,59,3,71,43,41,0,0,55,50,12,19,40,0,0,0,0,0,0,0,0,0,0],"split_type":[0,0,0,0,0,0,0,0,0,0,0,0,0,0,0,0,0,0,0,0,0,0,0,0,0],"sum_hessian":[2.88E2,4.2E1,2.46E2,1.71E2,7.5E1,1.8E1,1.53E2,6.7E1,8E0,7E0,1.1E1,3.7E1,1.16E2,1.2E1,5.5E1,7E0,4E0,8E0,2.9E1,5E0,1.11E2,7E0,5E0,4E0,5.1E1],"tree_param":{"num_deleted":"0","num_feature":"74","num_nodes":"25","size_leaf_vector":"1"}},{"base_weights":[-7.013115E-4,-2.532832E-3,8.399059E-3,2.0310063E-2,4.132921E-3,2.4082012E-2,-3.9269176E-4,-1.8065602E-2,7.4993684E-3,2.7929828E-2,4.5429785E-3,5.5058993E-4,-2.6823433E-2,-2.5303254E-2,9.921565E-3,6.595841E-5,1.5071001E-3,6.831526E-4,-5.958925E-5,-8.09927E-5,-1.7497361E-3,-1.8710664E-3,-6.386509E-5,6.180383E-4,-6.971078E-4],"categories":[],"categories_nodes":[],"categories_segments":[],"categories_sizes":[],"default_left":[0,0,0,0,0,0,0,0,0,0,0,0,0,0,0,0,0,0,0,0,0,0,0,0,0],"id":25,"left_children":[1,-1,3,5,7,9,-1,11,13,15,17,-1,19,21,23,-1,-1,-1,-1,-1,-1,-1,-1,-1,-1],"loss_changes":[1.3268553E-1,0E0,1.2171872E-2,7.1503185E-3,1.3705438E-2,3.8337968E-3,0E0,6.5652085E-3,1.2809935E-2,2.4123937E-3,7.1631215E-4,0E0,3.490137E-3,2.7678465E-3,8.887782E-3,0E0,0E0,0E0,0E0,0E0,0E0,0E0,0E0,0E0,0E0],"parents":[2147483647,0,0,2,2,3,3,4,4,5,5,7,7,8,8,9,9,10,10,12,12,13,13,14,14],"right_children":[2,-1,4,6,8,10,-1,12,14,16,18,-1,20,22,24,-1,-1,-1,-1,-1,-1,-1,-1,-1,-1],"split_conditions":[1.609497E1,-2.532832E-3,5.61E1,4.1482004E2,2.5156233E1,7.649117E-1,-3.9269176E-4,7.651771E-1,3.6831528E2,3.01E1,8.0814636E-1,5.5058993E-4,1.243E3,8.359229E-1,7.826675E-1,6.595841E-5,1.5071001E-3,6.831526E-4,-5.958925E-5,-8.09927E-5,-1.7497361E-3,-1.8710664E-3,-6.386509E-5,6.180383E-4,-6.971078E-4],"split_indices":[43,0,53,30,58,34,0,71,2,53,5,0,51,70,19,0,0,0,0,0,0,0,0,0,0],"split_type":[0,0,0,0,0,0,0,0,0,0,0,0,0,0,0,0,0,0,0,0,0,0,0,0,0],"sum_hessian":[2.89E2,4.4E1,2.45E2,6.3E1,1.82E2,5.6E1,7E0,2.3E1,1.59E2,4.6E1,1E1,5E0,1.8E1,1E1,1.49E2,4E0,4.2E1,4E0,6E0,5E0,1.3E1,6E0,4E0,1.36E2,1.3E1],"tree_param":{"num_deleted":"0","num_feature":"74","num_nodes":"25","size_leaf_vector":"1"}},{"base_weights":[6.093073E-4,-2.4043974E-3,9.194502E-3,2.0887515E-2,3.753339E-3,2.4366759E-2,5.4749693E-3,-9.601868E-3,8.758066E-3,2.702881E-2,1.580237E-2,-8.312463E-3,1.0775729E-3,1.2879729E-3,-1.5800053E-2,1.979792E-2,-0E0,1.4277834E-3,3.551411E-4,2.6096366E-4,1.137346E-3,-0E0,-7.383179E-4,-1.2386848E-3,9.602731E-5,1.4486456E-4,1.099695E-3,-3.6222461E-4,7.4967457E-4],"categories":[],"categories_nodes":[],"categories_segments":[],"categories_sizes":[],"default_left":[0,0,0,0,0,0,0,0,0,0,0,0,0,0,0,0,0,0,0,0,0,0,0,0,0,0,0,0,0],"id":26,"left_children":[1,-1,3,5,7,9,11,13,15,17,19,21,-1,-1,23,25,27,-1,-1,-1,-1,-1,-1,-1,-1,-1,-1,-1,-1],"loss_changes":[1.2004084E-1,0E0,1.5262971E-2,3.6972277E-3,1.1371474E-2,5.580969E-4,3.8579917E-3,1.0389505E-2,1.2046405E-2,8.096732E-4,9.2452345E-4,4.6835328E-4,0E0,0E0,6.636841E-3,1.7286055E-3,7.689678E-3,0E0,0E0,0E0,0E0,0E0,0E0,0E0,0E0,0E0,0E0,0E0,0E0],"parents":[2147483647,0,0,2,2,3,3,4,4,5,5,6,6,7,7,8,8,9,9,10,10,11,11,14,14,15,15,16,16],"right_children":[2,-1,4,6,8,10,12,14,16,18,20,22,-1,-1,24,26,28,-1,-1,-1,-1,-1,-1,-1,-1,-1,-1,-1,-1],"split_conditions":[1.609497E1,-2.4043974E-3,2.7094916E-1,1.944E3,1.3479055E0,9.9284875E-1,4.0132327E2,3.0268654E-1,1.6391854E0,9.280367E-1,6.432322E-1,8.959019E0,1.0775729E-3,1.2879729E-3,9.47E2,5.144646E-1,1.109E3,1.4277834E-3,3.551411E-4,2.6096366E-4,1.137346E-3,-0E0,-7.383179E-4,-1.2386848E-3,9.602731E-5,1.4486456E-4,1.099695E-3,-3.6222461E-4,7.4967457E-4],"split_indices":[43,0,72,50,4,66,17,34,18,34,70,46,0,0,49,71,49,0,0,0,0,0,0,0,0,0,0,0,0],"split_type":[0,0,0,0,0,0,0,0,0,0,0,0,0,0,0,0,0,0,0,0,0,0,0,0,0,0,0,0,0],"sum_hessian":[2.86E2,4.2E1,2.44E2,7.6E1,1.68E2,6.1E1,1.5E1,4.5E1,1.23E2,4.4E1,1.7E1,8E0,7E0,6E0,3.9E1,5.4E1,6.9E1,4E1,4E0,8E0,9E0,4E0,4E0,2.6E1,1.3E1,7E0,4.7E1,4.7E1,2.2E1],"tree_param":{"num_deleted":"0","num_feature":"74","num_nodes":"29","size_leaf_vector":"1"}},{"base_weights":[5.7947676E-4,-4.2909E-2,9.898861E-3,-2.9592743E-4,-2.2859217E-3,1.703572E-3,1.6342448E-2,-5.757443E-3,1.8911831E-2,2.2155758E-2,6.049237E-3,1.7671684E-2,-1.0216694E-2,2.40748E-2,-3.333667E-4,2.3786083E-2,-0E0,1.6991183E-3,4.7913796E-4,1.2621566E-3,1.1514686E-6,-1.5985046E-3,-7.2773204E-5,1.3248947E-3,4.5535757E-4,1.2474685E-3,2.0008677E-4,-3.0922293E-4,7.7191676E-4],"categories":[],"categories_nodes":[],"categories_segments":[],"categories_sizes":[],"default_left":[0,0,0,0,0,0,0,0,0,0,0,0,0,0,0,0,0,0,0,0,0,0,0,0,0,0,0,0,0],"id":27,"left_children":[1,3,5,-1,-1,7,9,11,13,15,17,19,21,23,-1,25,-1,-1,27,-1,-1,-1,-1,-1,-1,-1,-1,-1,-1],"loss_changes":[1.1722226E-1,4.51307E-3,1.2412585E-2,0E0,0E0,1.3978273E-2,7.542331E-3,7.941723E-3,4.6927165E-3,2.8969422E-3,7.4186176E-3,1.350268E-3,1.1816751E-2,4.1813403E-4,0E0,1.4058091E-3,0E0,0E0,4.4743447E-3,0E0,0E0,0E0,0E0,0E0,0E0,0E0,0E0,0E0,0E0],"parents":[2147483647,0,0,1,1,2,2,5,5,6,6,7,7,8,8,9,9,10,10,11,11,12,12,13,13,15,15,18,18],"right_children":[2,4,6,-1,-1,8,10,12,14,16,18,20,22,24,-1,26,-1,-1,28,-1,-1,-1,-1,-1,-1,-1,-1,-1,-1],"split_conditions":[2.346844E1,7.1033844E1,1.007E3,-2.9592743E-4,-2.2859217E-3,6.7983826E1,3.196654E-1,1.2490592E0,4.9658605E-1,4.31351E2,5.1459812E1,7.427747E-1,1.3416681E0,9.914925E-1,-3.333667E-4,5.6233643E1,-0E0,1.6991183E-3,9.039562E-1,1.2621566E-3,1.1514686E-6,-1.5985046E-3,-7.2773204E-5,1.3248947E-3,4.5535757E-4,1.2474685E-3,2.0008677E-4,-3.0922293E-4,7.7191676E-4],"split_indices":[43,3,49,0,0,59,9,15,9,28,26,11,4,67,0,61,0,0,70,0,0,0,0,0,0,0,0,0,0],"split_type":[0,0,0,0,0,0,0,0,0,0,0,0,0,0,0,0,0,0,0,0,0,0,0,0,0,0,0,0,0],"sum_hessian":[2.88E2,5E1,2.38E2,4E0,4.6E1,1.06E2,1.32E2,7.4E1,3.2E1,8.3E1,4.9E1,1.1E1,6.3E1,2.7E1,5E0,7.7E1,6E0,7E0,4.2E1,7E0,4E0,1.7E1,4.6E1,2.2E1,5E0,7.2E1,5E0,2.9E1,1.3E1],"tree_param":{"num_deleted":"0","num_feature":"74","num_nodes":"29","size_leaf_vector":"1"}},{"base_weights":[-1.4527977E-3,-2.1745318E-3,7.02513E-3,1.0383204E-2,-8.575047E-3,4.4395607E-3,1.6945152E-2,-1.7823892E-2,8.5944645E-3,-1.379387E-2,1.3506187E-2,1.9994099E-2,4.469239E-3,4.7581387E-4,-2.461594E-2,-8.181179E-5,9.500428E-4,-1.4276566E-3,1.0047404E-3,9.864643E-4,1.7341375E-4,1.0474055E-3,4.149666E-5,-2.477158E-4,7.694113E-4,-5.2964536E-4,-1.4731981E-3],"categories":[],"categories_nodes":[],"categories_segments":[],"categories_sizes":[],"default_left":[0,0,0,0,0,0,0,0,0,0,0,0,0,0,0,0,0,0,0,0,0,0,0,0,0,0,0],"id":28,"left_children":[1,-1,3,5,7,9,11,13,15,17,19,21,23,-1,25,-1,-1,-1,-1,-1,-1,-1,-1,-1,-1,-1,-1],"loss_changes":[1.0188601E-1,0E0,1.2522728E-2,7.3552914E-3,6.915003E-3,1.7541576E-2,3.1655412E-3,5.58473E-3,1.8017062E-3,1.8164368E-2,4.13475E-3,1.0994803E-3,2.2384904E-3,0E0,8.5095316E-4,0E0,0E0,0E0,0E0,0E0,0E0,0E0,0E0,0E0,0E0,0E0,0E0],"parents":[2147483647,0,0,2,2,3,3,4,4,5,5,6,6,7,7,8,8,9,9,10,10,11,11,12,12,14,14],"right_children":[2,-1,4,6,8,10,12,14,16,18,20,22,24,-1,26,-1,-1,-1,-1,-1,-1,-1,-1,-1,-1,-1,-1],"split_conditions":[2.2398895E1,-2.1745318E-3,4.2447183E2,1.2226499E3,9.9240016E4,1.016E3,4.68581E1,8.056734E-1,1.0801223E1,7.056379E1,6.30813E-1,4.159866E2,9.689527E-1,4.7581387E-4,6.8843746E-1,-8.181179E-5,9.500428E-4,-1.4276566E-3,1.0047404E-3,9.864643E-4,1.7341375E-4,1.0474055E-3,4.149666E-5,-2.477158E-4,7.694113E-4,-5.2964536E-4,-1.4731981E-3],"split_indices":[48,0,27,42,55,49,44,37,46,63,19,27,39,0,34,0,0,0,0,0,0,0,0,0,0,0,0],"split_type":[0,0,0,0,0,0,0,0,0,0,0,0,0,0,0,0,0,0,0,0,0,0,0,0,0,0,0],"sum_hessian":[2.83E2,4.7E1,2.36E2,1.95E2,4.1E1,1.04E2,9.1E1,2.7E1,1.4E1,3.4E1,7E1,7.2E1,1.9E1,5E0,2.2E1,7E0,7E0,2.4E1,1E1,4.2E1,2.8E1,6.8E1,4E0,1E1,9E0,7E0,1.5E1],"tree_param":{"num_deleted":"0","num_feature":"74","num_nodes":"27","size_leaf_vector":"1"}},{"base_weights":[-3.9524818E-4,-4.0183518E-2,7.5556557E-3,-4.4643154E-4,-2.1270548E-3,1.0595963E-2,-6.277469E-3,5.1087164E-3,1.5773697E-2,5.893081E-3,-2.0363932E-2,-3.2123507E-3,1.6914293E-2,1.9135114E-4,2.1531997E-2,-7.1838996E-3,2.0402053E-2,-2.6319101E-2,-0E0,2.7079068E-5,-1.4230682E-3,1.1919586E-3,2.3700557E-4,-1.2513294E-3,4.9036794E-4,2.703419E-5,1.129046E-3,-9.930967E-4,-0E0,1.2983753E-3,2.708458E-4,-1.9751329E-3,-7.913167E-4],"categories":[],"categories_nodes":[],"categories_segments":[],"categories_sizes":[],"default_left":[0,0,0,0,0,0,0,0,0,0,0,0,0,0,0,0,0,0,0,0,0,0,0,0,0,0,0,0,0,0,0,0,0],"id":29,"left_children":[1,3,5,-1,-1,7,9,11,13,15,17,19,21,23,25,27,29,31,-1,-1,-1,-1,-1,-1,-1,-1,-1,-1,-1,-1,-1,-1,-1],"loss_changes":[9.300489E-2,2.716057E-3,1.0371598E-2,0E0,0E0,5.421305E-3,7.8080753E-3,1.0014854E-2,8.930886E-3,4.8323534E-3,2.374637E-3,5.8868146E-3,3.142004E-3,7.125634E-3,1.3859235E-3,1.3015727E-3,5.4628076E-4,1.0348391E-3,0E0,0E0,0E0,0E0,0E0,0E0,0E0,0E0,0E0,0E0,0E0,0E0,0E0,0E0,0E0],"parents":[2147483647,0,0,1,1,2,2,5,5,6,6,7,7,8,8,9,9,10,10,11,11,12,12,13,13,14,14,15,15,16,16,17,17],"right_children":[2,4,6,-1,-1,8,10,12,14,16,18,20,22,24,26,28,30,32,-1,-1,-1,-1,-1,-1,-1,-1,-1,-1,-1,-1,-1,-1,-1],"split_conditions":[7.53496E0,1.09945E4,4.2447183E2,-4.4643154E-4,-2.1270548E-3,3.9311012E1,9.959942E-1,2.8863718E3,1.007E3,5.436996E1,1.1462101E5,6.0852962E1,9.134074E-1,5.304518E1,5.7784695E1,2.165924E3,7.688134E1,7.5793195E-1,-0E0,2.7079068E-5,-1.4230682E-3,1.1919586E-3,2.3700557E-4,-1.2513294E-3,4.9036794E-4,2.703419E-5,1.129046E-3,-9.930967E-4,-0E0,1.2983753E-3,2.708458E-4,-1.9751329E-3,-7.913167E-4],"split_indices":[44,0,27,0,0,10,37,73,49,60,55,57,36,43,33,42,59,11,0,0,0,0,0,0,0,0,0,0,0,0,0,0,0],"split_type":[0,0,0,0,0,0,0,0,0,0,0,0,0,0,0,0,0,0,0,0,0,0,0,0,0,0,0,0,0,0,0,0,0],"sum_hessian":[2.91E2,4.8E1,2.43E2,4E0,4.4E1,2E2,4.3E1,9.9E1,1.01E2,2.3E1,2E1,5.8E1,4.1E1,2.8E1,7.3E1,1.2E1,1.1E1,1.5E1,5E0,5.1E1,7E0,2.5E1,1.6E1,7E0,2.1E1,4E0,6.9E1,4E0,8E0,7E0,4E0,5E0,1E1],"tree_param":{"num_deleted":"0","num_feature":"74","num_nodes":"33","size_leaf_vector":"1"}},{"base_weights":[-8.6013303E-4,-3.7979104E-2,7.349468E-3,-1.990092E-3,-5.4424995E-4,4.4041537E-3,2.009716E-2,-1.1450923E-2,7.2419164E-3,-5.5401233E-5,2.2556873E-2,9.584512E-4,-2.0706953E-2,8.339127E-3,-1.3658594E-3,1.2032246E-3,2.7460806E-4,-1.8085573E-3,-4.6906548E-4,6.8775535E-4,7.795258E-5],"categories":[],"categories_nodes":[],"categories_segments":[],"categories_sizes":[],"default_left":[0,0,0,0,0,0,0,0,0,0,0,0,0,0,0,0,0,0,0,0,0],"id":30,"left_children":[1,3,5,-1,-1,7,9,11,13,-1,15,-1,17,19,-1,-1,-1,-1,-1,-1,-1],"loss_changes":[8.7434016E-2,1.627937E-3,8.45223E-3,0E0,0E0,8.679482E-3,2.4823043E-3,8.631467E-3,6.2566707E-3,0E0,5.7562254E-4,0E0,3.2334076E-3,5.7007354E-3,0E0,0E0,0E0,0E0,0E0,0E0,0E0],"parents":[2147483647,0,0,1,1,2,2,5,5,6,6,7,7,8,8,10,10,12,12,13,13],"right_children":[2,4,6,-1,-1,8,10,12,14,-1,16,-1,18,20,-1,-1,-1,-1,-1,-1,-1],"split_conditions":[2.346844E1,1.51E3,1.297E3,-1.990092E-3,-5.4424995E-4,2.531679E1,6.523938E0,7.3294234E-1,3.403337E0,-5.5401233E-5,1.4054361E2,9.584512E-4,4.6499765E2,9.564593E-1,-1.3658594E-3,1.2032246E-3,2.7460806E-4,-1.8085573E-3,-4.6906548E-4,6.8775535E-4,7.795258E-5],"split_indices":[43,50,49,0,0,59,59,64,15,0,48,0,7,38,0,0,0,0,0,0,0],"split_type":[0,0,0,0,0,0,0,0,0,0,0,0,0,0,0,0,0,0,0,0,0],"sum_hessian":[2.84E2,5.1E1,2.33E2,4.7E1,4E0,1.91E2,4.2E1,2.8E1,1.63E2,4E0,3.8E1,6E0,2.2E1,1.59E2,4E0,3.4E1,4E0,8E0,1.4E1,8.7E1,7.2E1],"tree_param":{"num_deleted":"0","num_feature":"74","num_nodes":"21","size_leaf_vector":"1"}},{"base_weights":[6.2416436E-4,-3.529287E-2,8.200891E-3,-2.2318591E-4,-1.8804446E-3,1.1597795E-2,-1.5299092E-3,1.9064156E-2,7.6552676E-3,-1.3476809E-2,8.762352E-3,6.7384834E-3,2.4241522E-2,-1.0202458E-3,9.383668E-3,4.8487415E-4,-1.779968E-2,-1.0934377E-3,1.3908791E-2,-9.783196E-4,7.5813005E-4,1.3473121E-3,9.277456E-5,1.4557688E-4,7.550631E-4,9.850598E-5,-1.2164563E-3,9.830211E-4,-1.5578711E-4],"categories":[],"categories_nodes":[],"categories_segments":[],"categories_sizes":[],"default_left":[0,0,0,0,0,0,0,0,0,0,0,0,0,0,0,0,0,0,0,0,0,0,0,0,0,0,0,0,0],"id":31,"left_children":[1,3,5,-1,-1,7,9,11,13,15,17,19,21,-1,23,-1,25,-1,27,-1,-1,-1,-1,-1,-1,-1,-1,-1,-1],"loss_changes":[7.975365E-2,3.0528381E-3,8.150691E-3,0E0,0E0,4.914839E-3,7.911752E-3,3.4195352E-3,5.949667E-3,3.2590185E-3,5.584366E-3,4.6845465E-3,2.2049993E-3,0E0,4.0314794E-3,0E0,3.627753E-3,0E0,3.164268E-3,0E0,0E0,0E0,0E0,0E0,0E0,0E0,0E0,0E0,0E0],"parents":[2147483647,0,0,1,1,2,2,5,5,6,6,7,7,8,8,9,9,10,10,11,11,12,12,14,14,16,16,18,18],"right_children":[2,4,6,-1,-1,8,10,12,14,16,18,20,22,-1,24,-1,26,-1,28,-1,-1,-1,-1,-1,-1,-1,-1,-1,-1],"split_conditions":[2.346844E1,7.1033844E1,4.3749316E2,-2.2318591E-4,-1.8804446E-3,2.599141E1,5.236866E2,7.9417646E-1,2.531679E1,9.504851E1,2.5156233E1,1.726E3,9.031553E-1,-1.0202458E-3,3.547707E2,4.8487415E-4,2.0660518E-1,-1.0934377E-3,1.804E3,-9.783196E-4,7.5813005E-4,1.3473121E-3,9.277456E-5,1.4557688E-4,7.550631E-4,9.850598E-5,-1.2164563E-3,9.830211E-4,-1.5578711E-4],"split_indices":[43,3,28,0,0,61,14,65,59,48,58,50,34,0,3,0,72,0,50,0,0,0,0,0,0,0,0,0,0],"split_type":[0,0,0,0,0,0,0,0,0,0,0,0,0,0,0,0,0,0,0,0,0,0,0,0,0,0,0,0,0],"sum_hessian":[2.92E2,5E1,2.42E2,4E0,4.6E1,1.8E2,6.2E1,6E1,1.2E2,2.9E1,3.3E1,1.9E1,4.1E1,6E0,1.14E2,4E0,2.5E1,4E0,2.9E1,4E0,1.5E1,3.6E1,5E0,5.5E1,5.9E1,6E0,1.9E1,2.2E1,7E0],"tree_param":{"num_deleted":"0","num_feature":"74","num_nodes":"29","size_leaf_vector":"1"}},{"base_weights":[-4.7624388E-4,-3.461231E-2,6.8694204E-3,-5.8114284E-4,-1.8023858E-3,1.3404496E-3,5.221255E-3,-2.2785957E-3,1.0768712E-2,-3.049733E-2,2.332605E-3,1.2240669E-2,-1.3533568E-3,-5.683402E-4,-1.9375656E-3,4.81921E-4,-5.073159E-4,7.65185E-4,1.9878558E-5],"categories":[],"categories_nodes":[],"categories_segments":[],"categories_sizes":[],"default_left":[0,0,0,0,0,0,0,0,0,0,0,0,0,0,0,0,0,0,0],"id":32,"left_children":[1,3,5,-1,-1,-1,7,9,11,13,15,17,-1,-1,-1,-1,-1,-1,-1],"loss_changes":[7.498856E-2,8.5327774E-4,7.5913304E-3,0E0,0E0,0E0,9.5954E-3,1.2974642E-2,7.5344974E-3,1.2689829E-3,7.750886E-3,4.4802018E-3,0E0,0E0,0E0,0E0,0E0,0E0,0E0],"parents":[2147483647,0,0,1,1,2,2,6,6,7,7,8,8,9,9,10,10,11,11],"right_children":[2,4,6,-1,-1,-1,8,10,12,14,16,18,-1,-1,-1,-1,-1,-1,-1],"split_conditions":[2.346844E1,8.199222E1,1.462E3,-5.8114284E-4,-1.8023858E-3,1.3404496E-3,1.008E3,5.1779224E2,6.2093407E1,5.7449116E1,4.2447183E2,6.5294794E2,-1.3533568E-3,-5.683402E-4,-1.9375656E-3,4.81921E-4,-5.073159E-4,7.65185E-4,1.9878558E-5],"split_indices":[43,3,50,0,0,0,49,2,58,58,27,13,0,0,0,0,0,0,0],"split_type":[0,0,0,0,0,0,0,0,0,0,0,0,0,0,0,0,0,0,0],"sum_hessian":[2.96E2,5.2E1,2.44E2,4E0,4.8E1,1.7E1,2.27E2,9.6E1,1.31E2,1.3E1,8.3E1,1.27E2,4E0,5E0,8E0,5.3E1,3E1,1E2,2.7E1],"tree_param":{"num_deleted":"0","num_feature":"74","num_nodes":"19","size_leaf_vector":"1"}},{"base_weights":[-9.459807E-5,-1.7095304E-3,6.2408126E-3,-9.4027724E-4,1.030965E-2,-5.224237E-3,9.153403E-4,-8.951206E-4,1.1413981E-2,6.256699E-3,-1.4861496E-2,1.2470796E-2,-4.0248182E-4,7.1979663E-4,-6.858527E-4,-2.4714973E-4,-1.4712609E-3,1.2602228E-3,5.14428E-4],"categories":[],"categories_nodes":[],"categories_segments":[],"categories_sizes":[],"default_left":[0,0,0,0,0,0,0,0,0,0,0,0,0,0,0,0,0,0,0],"id":33,"left_children":[1,-1,3,5,7,9,-1,-1,11,13,15,17,-1,-1,-1,-1,-1,-1,-1],"loss_changes":[6.335243E-2,0E0,7.2911847E-3,7.3031955E-3,5.0620176E-3,8.366744E-3,0E0,0E0,3.2917187E-3,5.731674E-3,5.4333312E-3,3.4427792E-3,0E0,0E0,0E0,0E0,0E0,0E0,0E0],"parents":[2147483647,0,0,2,2,3,3,4,4,5,5,8,8,9,9,10,10,11,11],"right_children":[2,-1,4,6,8,10,-1,-1,12,14,16,18,-1,-1,-1,-1,-1,-1,-1],"split_conditions":[3.482403E1,-1.7095304E-3,5.1142496E-1,9.768508E-1,-1.2426293E1,4.8144736E0,9.153403E-4,-8.951206E-4,2.975904E0,3.870268E2,7.2432286E-1,7.2498055E1,-4.0248182E-4,7.1979663E-4,-6.858527E-4,-2.4714973E-4,-1.4712609E-3,1.2602228E-3,5.14428E-4],"split_indices":[42,0,41,39,25,23,0,0,15,30,40,26,0,0,0,0,0,0,0],"split_type":[0,0,0,0,0,0,0,0,0,0,0,0,0,0,0,0,0,0,0],"sum_hessian":[2.9E2,4.5E1,2.45E2,8.8E1,1.57E2,7.3E1,1.5E1,5E0,1.52E2,3.3E1,4E1,1.45E2,7E0,2.4E1,9E0,2.5E1,1.5E1,1.9E1,1.26E2],"tree_param":{"num_deleted":"0","num_feature":"74","num_nodes":"19","size_leaf_vector":"1"}},{"base_weights":[-1.2415758E-3,-3.1576324E-2,5.0416696E-3,-3.4179442E-4,-1.6680835E-3,-4.3787584E-3,8.054474E-3,-1.3288285E-2,1.0349934E-2,1.0857432E-3,1.3241435E-2,8.8860386E-4,-1.9009344E-2,1.3443887E-3,3.3159952E-3,1.3551689E-2,-6.464858E-3,-3.1314732E-4,1.5641794E-2,3.883623E-4,-1.1734559E-3,-1.3046046E-5,6.976389E-4,-4.984545E-4,8.887923E-4,-7.373111E-4,6.58737E-4,8.375599E-4,-8.278886E-4,-1.2209607E-4,8.4331614E-4],"categories":[],"categories_nodes":[],"categories_segments":[],"categories_sizes":[],"default_left":[0,0,0,0,0,0,0,0,0,0,0,0,0,0,0,0,0,0,0,0,0,0,0,0,0,0,0,0,0,0,0],"id":34,"left_children":[1,3,5,-1,-1,7,9,11,13,15,17,-1,19,-1,21,23,25,27,29,-1,-1,-1,-1,-1,-1,-1,-1,-1,-1,-1,-1],"loss_changes":[5.5508137E-2,1.57848E-3,6.883683E-3,0E0,0E0,7.7780057E-3,6.4571695E-3,6.9250404E-3,2.167978E-3,7.6885084E-3,3.541911E-3,0E0,4.160668E-3,0E0,7.873561E-4,3.3352948E-3,8.342125E-3,4.7106906E-3,2.1562502E-3,0E0,0E0,0E0,0E0,0E0,0E0,0E0,0E0,0E0,0E0,0E0,0E0],"parents":[2147483647,0,0,1,1,2,2,5,5,6,6,7,7,8,8,9,9,10,10,12,12,14,14,15,15,16,16,17,17,18,18],"right_children":[2,4,6,-1,-1,8,10,12,14,16,18,-1,20,-1,22,24,26,28,30,-1,-1,-1,-1,-1,-1,-1,-1,-1,-1,-1,-1],"split_conditions":[7.53496E0,1.09945E4,1.3479055E0,-3.4179442E-4,-1.6680835E-3,9.76E2,5.8369523E-1,1.2096081E0,2.876902E2,4.7396293E0,2.4929462E1,8.8860386E-4,3.0095595E-1,1.3443887E-3,5.592491E0,3.6735526E-1,9.696133E-1,6.123495E1,1.8476471E2,3.883623E-4,-1.1734559E-3,-1.3046046E-5,6.976389E-4,-4.984545E-4,8.887923E-4,-7.373111E-4,6.58737E-4,8.375599E-4,-8.278886E-4,-1.2209607E-4,8.4331614E-4],"split_indices":[44,0,4,0,0,49,41,15,32,23,58,0,41,0,22,67,39,43,13,0,0,0,0,0,0,0,0,0,0,0,0],"split_type":[0,0,0,0,0,0,0,0,0,0,0,0,0,0,0,0,0,0,0,0,0,0,0,0,0,0,0,0,0,0,0],"sum_hessian":[2.88E2,4.9E1,2.39E2,4E0,4.5E1,5.7E1,1.82E2,3.6E1,2.1E1,7.9E1,1.03E2,5E0,3.1E1,5E0,1.6E1,3E1,4.9E1,1.5E1,8.8E1,4E0,2.7E1,1.2E1,4E0,4E0,2.6E1,3.5E1,1.4E1,7E0,8E0,5E0,8.3E1],"tree_param":{"num_deleted":"0","num_feature":"74","num_nodes":"31","size_leaf_vector":"1"}},{"base_weights":[-3.983966E-4,-2.9622387E-2,5.1460178E-3,-1.1674157E-4,-1.5936954E-3,-0E0,1.0256081E-2,-5.0253007E-3,1.7837798E-2,1.5130303E-2,1.7359661E-3,-2.1377015E-3,-2.8353122E-3,1.085055E-3,-7.5046926E-5,1.6811516E-2,-5.3888554E-4,1.3478259E-3,-1.6702071E-3,-9.203548E-4,9.1161164E-5,-6.435147E-5,9.003481E-4,-5.268969E-4,3.61157E-4],"categories":[],"categories_nodes":[],"categories_segments":[],"categories_sizes":[],"default_left":[0,0,0,0,0,0,0,0,0,0,0,0,0,0,0,0,0,0,0,0,0,0,0,0,0],"id":35,"left_children":[1,3,5,-1,-1,7,9,11,13,15,17,-1,19,-1,-1,21,-1,-1,23,-1,-1,-1,-1,-1,-1],"loss_changes":[4.7709934E-2,2.4711043E-3,6.5287636E-3,0E0,0E0,1.1040653E-2,4.9546575E-3,7.437558E-3,2.2517806E-3,3.638966E-3,4.335447E-3,0E0,6.945777E-3,0E0,0E0,1.7914232E-3,0E0,0E0,3.421545E-3,0E0,0E0,0E0,0E0,0E0,0E0],"parents":[2147483647,0,0,1,1,2,2,5,5,6,6,7,7,8,8,9,9,10,10,12,12,15,15,18,18],"right_children":[2,4,6,-1,-1,8,10,12,14,16,18,-1,20,-1,-1,22,-1,-1,24,-1,-1,-1,-1,-1,-1],"split_conditions":[2.2398895E1,8.9276953E2,1.032E3,-1.1674157E-4,-1.5936954E-3,7.159642E1,3.2163757E-1,1.5858911E-1,9.261794E-1,4.1795786E2,3.7027107E1,-2.1377015E-3,3.516255E2,1.085055E-3,-7.5046926E-5,1.0104481E2,-5.3888554E-4,1.3478259E-3,6.1456615E-1,-9.203548E-4,9.1161164E-5,-6.435147E-5,9.003481E-4,-5.268969E-4,3.61157E-4],"split_indices":[48,1,49,0,0,59,9,9,5,3,26,0,3,0,0,3,0,0,34,0,0,0,0,0,0],"split_type":[0,0,0,0,0,0,0,0,0,0,0,0,0,0,0,0,0,0,0,0,0,0,0,0,0],"sum_hessian":[2.91E2,4.6E1,2.45E2,4E0,4.2E1,1.22E2,1.23E2,9.6E1,2.6E1,7.7E1,4.6E1,4E0,9.2E1,2.2E1,4E0,7.3E1,4E0,5E0,4.1E1,2.1E1,7.1E1,4E0,6.9E1,2.1E1,2E1],"tree_param":{"num_deleted":"0","num_feature":"74","num_nodes":"25","size_leaf_vector":"1"}},{"base_weights":[-5.7131046E-4,-2.7942175E-2,5.157968E-3,-1.4976276E-3,-7.281056E-5,1.19383065E-2,1.7372011E-3,1.51438285E-2,-1.3921233E-2,1.1147403E-3,-4.2941273E-4,-4.8868562E-5,1.6253566E-2,-0E0,-1.2608933E-3,8.70027E-3,-4.471781E-3,6.501468E-5,8.630482E-4,-4.3019705E-4,7.087936E-4,1.0399803E-3,-3.3065057E-4],"categories":[],"categories_nodes":[],"categories_segments":[],"categories_sizes":[],"default_left":[0,0,0,0,0,0,0,0,0,0,0,0,0,0,0,0,0,0,0,0,0,0,0],"id":36,"left_children":[1,3,5,-1,-1,7,9,11,13,-1,15,-1,17,-1,-1,19,21,-1,-1,-1,-1,-1,-1],"loss_changes":[4.616204E-2,2.3578778E-3,5.455443E-3,0E0,0E0,6.8545137E-3,7.4883103E-3,1.4567487E-3,1.4354971E-3,0E0,5.458641E-3,0E0,8.162856E-4,0E0,0E0,4.441481E-3,5.623315E-3,0E0,0E0,0E0,0E0,0E0,0E0],"parents":[2147483647,0,0,1,1,2,2,5,5,6,6,7,7,8,8,10,10,12,12,15,15,16,16],"right_children":[2,4,6,-1,-1,8,10,12,14,-1,16,-1,18,-1,-1,20,22,-1,-1,-1,-1,-1,-1],"split_conditions":[3.56E2,1.4117754E3,2.7094916E-1,-1.4976276E-3,-7.281056E-5,8.5395336E-1,1.462E3,1.0246238E1,9.02912E0,1.1147403E-3,3.216779E-1,-4.8868562E-5,3.783645E-1,-0E0,-1.2608933E-3,8.5014313E-1,3.6263406E-1,6.501468E-5,8.630482E-4,-4.3019705E-4,7.087936E-4,1.0399803E-3,-3.3065057E-4],"split_indices":[49,47,72,0,0,12,50,57,46,0,34,0,36,0,0,39,38,0,0,0,0,0,0],"split_type":[0,0,0,0,0,0,0,0,0,0,0,0,0,0,0,0,0,0,0,0,0,0,0],"sum_hessian":[2.91E2,5E1,2.41E2,4.6E1,4E0,7.9E1,1.62E2,7.1E1,8E0,1.5E1,1.47E2,4E0,6.7E1,4E0,4E0,4.4E1,1.03E2,5E0,6.2E1,1E1,3.4E1,7E0,9.6E1],"tree_param":{"num_deleted":"0","num_feature":"74","num_nodes":"23","size_leaf_vector":"1"}},{"base_weights":[6.371754E-5,-2.6989704E-2,5.5158027E-3,-1.3095132E-4,-1.4459211E-3,1.1609135E-2,1.4446907E-3,-7.108759E-4,1.3010499E-2,9.718261E-3,-2.7318369E-3,2.3630972E-3,1.564852E-2,-4.916135E-3,1.4732178E-2,1.05733955E-2,-7.637451E-3,7.658821E-4,-8.866712E-4,-1.5857808E-4,8.624798E-4,1.0123466E-3,-9.730246E-4,-1.6978016E-4,8.6294237E-4,-1.805627E-4,9.4417896E-4,-6.904444E-4,2.432063E-4],"categories":[],"categories_nodes":[],"categories_segments":[],"categories_sizes":[],"default_left":[0,0,0,0,0,0,0,0,0,0,0,0,0,0,0,0,0,0,0,0,0,0,0,0,0,0,0,0,0],"id":37,"left_children":[1,3,5,-1,-1,7,9,-1,11,13,15,17,19,21,23,25,27,-1,-1,-1,-1,-1,-1,-1,-1,-1,-1,-1,-1],"loss_changes":[4.2265933E-2,1.8650852E-3,5.806283E-3,0E0,0E0,3.6111986E-3,5.141413E-3,0E0,2.3389189E-3,3.8393685E-3,6.382617E-3,5.4543014E-3,2.3650173E-3,5.143899E-3,1.9377479E-3,3.2857195E-3,5.7116086E-3,0E0,0E0,0E0,0E0,0E0,0E0,0E0,0E0,0E0,0E0,0E0,0E0],"parents":[2147483647,0,0,1,1,2,2,5,5,6,6,8,8,9,9,10,10,11,11,12,12,13,13,14,14,15,15,16,16],"right_children":[2,4,6,-1,-1,8,10,-1,12,14,16,18,20,22,24,26,28,-1,-1,-1,-1,-1,-1,-1,-1,-1,-1,-1,-1],"split_conditions":[2.2398895E1,7.129706E2,8.492291E-1,-1.3095132E-4,-1.4459211E-3,4.6370163E1,3.841405E-1,-7.108759E-4,2.8249723E-1,5.612677E-1,2.7094916E-1,9.378161E-1,1.1695806E0,4.172255E0,3.1583362E0,1.303602E-1,9.782994E-1,7.658821E-4,-8.866712E-4,-1.5857808E-4,8.624798E-4,1.0123466E-3,-9.730246E-4,-1.6978016E-4,8.6294237E-4,-1.805627E-4,9.4417896E-4,-6.904444E-4,2.432063E-4],"split_indices":[48,1,37,0,0,33,34,0,34,69,72,68,18,24,22,72,39,0,0,0,0,0,0,0,0,0,0,0,0],"split_type":[0,0,0,0,0,0,0,0,0,0,0,0,0,0,0,0,0,0,0,0,0,0,0,0,0,0,0,0,0],"sum_hessian":[2.86E2,4.7E1,2.39E2,4E0,4.3E1,9.4E1,1.45E2,4E0,9E1,4.9E1,9.6E1,1.9E1,7.1E1,1.2E1,3.7E1,2.5E1,7.1E1,1.2E1,7E0,5E0,6.6E1,4E0,8E0,4E0,3.3E1,9E0,1.6E1,4.8E1,2.3E1],"tree_param":{"num_deleted":"0","num_feature":"74","num_nodes":"29","size_leaf_vector":"1"}},{"base_weights":[-2.9142722E-4,-1.3229806E-3,4.330806E-3,1.0595835E-2,1.4211489E-4,1.961571E-2,6.748619E-3,3.903425E-3,-1.040683E-2,2.580182E-2,-6.0001377E-5,-1.17490655E-2,1.0879488E-2,-5.751432E-3,1.0871226E-2,-1.3874074E-2,6.9726224E-4,6.270158E-4,1.6624496E-3,1.7638599E-4,-1.9448734E-3,6.5554626E-4,-4.6750103E-4,2.786603E-4,-9.12277E-4,7.369024E-4,-0E0,-1.4589414E-3,-4.3243213E-4],"categories":[],"categories_nodes":[],"categories_segments":[],"categories_sizes":[],"default_left":[0,0,0,0,0,0,0,0,0,0,0,0,0,0,0,0,0,0,0,0,0,0,0,0,0,0,0,0,0],"id":38,"left_children":[1,-1,3,5,7,9,11,13,15,17,-1,19,21,23,25,27,-1,-1,-1,-1,-1,-1,-1,-1,-1,-1,-1,-1,-1],"loss_changes":[3.5412963E-2,0E0,6.3729556E-3,3.0047167E-3,5.927266E-3,3.8824966E-3,5.544346E-3,7.6483125E-3,3.4857146E-3,1.2978893E-3,0E0,5.8825403E-3,2.8235074E-3,6.878499E-3,2.8431793E-3,2.168456E-3,0E0,0E0,0E0,0E0,0E0,0E0,0E0,0E0,0E0,0E0,0E0,0E0,0E0],"parents":[2147483647,0,0,2,2,3,3,4,4,5,5,6,6,7,7,8,8,9,9,11,11,12,12,13,13,14,14,15,15],"right_children":[2,-1,4,6,8,10,12,14,16,18,-1,20,22,24,26,28,-1,-1,-1,-1,-1,-1,-1,-1,-1,-1,-1,-1,-1],"split_conditions":[3.482403E1,-1.3229806E-3,8.381214E-1,3.99566E2,4.4973473E1,1.944E3,8.446454E1,1.1844813E3,4.713569E2,1.0395901E1,-6.0001377E-5,9.212895E-1,9.9863625E-1,6.75E1,7.649117E-1,2.165924E3,6.9726224E-4,6.270158E-4,1.6624496E-3,1.7638599E-4,-1.9448734E-3,6.5554626E-4,-4.6750103E-4,2.786603E-4,-9.12277E-4,7.369024E-4,-0E0,-1.4589414E-3,-4.3243213E-4],"split_indices":[42,0,37,13,44,50,26,42,32,63,0,69,72,53,34,42,0,0,0,0,0,0,0,0,0,0,0,0,0],"split_type":[0,0,0,0,0,0,0,0,0,0,0,0,0,0,0,0,0,0,0,0,0,0,0,0,0,0,0,0,0],"sum_hessian":[2.89E2,4.3E1,2.46E2,9.7E1,1.49E2,2.7E1,7E1,1.11E2,3.8E1,2.1E1,6E0,1.2E1,5.8E1,4.6E1,6.5E1,3.4E1,4E0,9E0,1.2E1,8E0,4E0,5.3E1,5E0,2.4E1,2.2E1,4.8E1,1.7E1,7E0,2.7E1],"tree_param":{"num_deleted":"0","num_feature":"74","num_nodes":"29","size_leaf_vector":"1"}},{"base_weights":[-1.5168764E-4,-2.468126E-2,4.964625E-3,-1.8633595E-4,-1.3119425E-3,1.1046523E-3,3.4679759E-3,1.04780225E-2,-3.4089253E-4,1.5895285E-2,7.29813E-5,8.891736E-3,-4.769303E-3,8.634928E-4,-0E0,-1.0892816E-3,3.7396114E-4,6.453676E-4,-6.6613295E-4,7.117965E-5,-7.056686E-4],"categories":[],"categories_nodes":[],"categories_segments":[],"categories_sizes":[],"default_left":[0,0,0,0,0,0,0,0,0,0,0,0,0,0,0,0,0,0,0,0,0],"id":39,"left_children":[1,3,5,-1,-1,-1,7,9,11,13,15,17,19,-1,-1,-1,-1,-1,-1,-1,-1],"loss_changes":[3.558547E-2,1.2018457E-3,5.6407806E-3,0E0,0E0,0E0,5.872218E-3,4.179404E-3,5.725204E-3,1.086398E-3,4.5528E-3,4.182009E-3,5.7022064E-3,0E0,0E0,0E0,0E0,0E0,0E0,0E0,0E0],"parents":[2147483647,0,0,1,1,2,2,6,6,7,7,8,8,9,9,10,10,11,11,12,12],"right_children":[2,4,6,-1,-1,-1,8,10,12,14,16,18,20,-1,-1,-1,-1,-1,-1,-1,-1],"split_conditions":[7.53496E0,4.282391E-1,1.462E3,-1.8633595E-4,-1.3119425E-3,1.1046523E-3,2.7094916E-1,9.8647535E-1,3.2587594E-1,2.5966265E3,4.2730695E-1,7.012363E1,9.6687526E-1,8.634928E-4,-0E0,-1.0892816E-3,3.7396114E-4,6.453676E-4,-6.6613295E-4,7.117965E-5,-7.056686E-4],"split_indices":[44,39,50,0,0,0,72,66,34,42,35,43,37,0,0,0,0,0,0,0,0],"split_type":[0,0,0,0,0,0,0,0,0,0,0,0,0,0,0,0,0,0,0,0,0],"sum_hessian":[2.8E2,4.8E1,2.32E2,4E0,4.4E1,1.7E1,2.15E2,7.6E1,1.39E2,4.9E1,2.7E1,4.4E1,9.5E1,4.5E1,4E0,6E0,2.1E1,3.8E1,6E0,5.7E1,3.8E1],"tree_param":{"num_deleted":"0","num_feature":"74","num_nodes":"21","size_leaf_vector":"1"}},{"base_weights":[-9.128789E-5,-2.3458168E-2,4.322275E-3,-2.1606675E-4,-1.2487938E-3,7.121398E-3,-2.9972845E-3,8.243563E-3,-1.0882019E-2,-1.0184087E-2,1.1058016E-2,1.1369947E-3,1.0464096E-2,-1.2309909E-3,3.565741E-5,6.630817E-3,-1.43826995E-2,1.619245E-2,-3.8187733E-4,-9.13963E-4,3.3504565E-4,4.373237E-4,1.3124195E-3,-1.6920797E-4,8.6598145E-4,1.17423064E-4,-8.739806E-4,9.637585E-4,1.16116906E-4],"categories":[],"categories_nodes":[],"categories_segments":[],"categories_sizes":[],"default_left":[0,0,0,0,0,0,0,0,0,0,0,0,0,0,0,0,0,0,0,0,0,0,0,0,0,0,0,0,0],"id":40,"left_children":[1,3,5,-1,-1,7,9,11,13,15,17,19,21,-1,-1,23,25,27,-1,-1,-1,-1,-1,-1,-1,-1,-1,-1,-1],"loss_changes":[2.9169485E-2,9.060856E-4,4.8978357E-3,0E0,0E0,3.5382016E-3,6.6697E-3,2.4442933E-3,1.8495447E-3,3.2792557E-3,2.321024E-3,4.4359528E-3,2.755179E-3,0E0,0E0,1.1614009E-3,2.0576995E-3,5.0890027E-4,0E0,0E0,0E0,0E0,0E0,0E0,0E0,0E0,0E0,0E0,0E0],"parents":[2147483647,0,0,1,1,2,2,5,5,6,6,7,7,8,8,9,9,10,10,11,11,12,12,15,15,16,16,17,17],"right_children":[2,4,6,-1,-1,8,10,12,14,16,18,20,22,-1,-1,24,26,28,-1,-1,-1,-1,-1,-1,-1,-1,-1,-1,-1],"split_conditions":[2.2398895E1,1.8048134E2,4.3326782E2,-2.1606675E-4,-1.2487938E-3,3.403337E0,5.1336847E2,4.2677414E-1,3.815763E0,1.0990031E2,1.794E3,5.612677E-1,1.84782E-1,-1.2309909E-3,3.565741E-5,4.6994102E1,9.222269E-1,5.157994E3,-3.8187733E-4,-9.13963E-4,3.3504565E-4,4.373237E-4,1.3124195E-3,-1.6920797E-4,8.6598145E-4,1.17423064E-4,-8.739806E-4,9.637585E-4,1.16116906E-4],"split_indices":[48,3,28,0,0,15,31,41,18,48,50,69,56,0,0,57,36,73,0,0,0,0,0,0,0,0,0,0,0],"split_type":[0,0,0,0,0,0,0,0,0,0,0,0,0,0,0,0,0,0,0,0,0,0,0,0,0,0,0,0,0],"sum_hessian":[2.79E2,4.4E1,2.35E2,4E0,4E1,1.71E2,6.4E1,1.62E2,9E0,4.3E1,2.1E1,4E1,1.22E2,4E0,5E0,8E0,3.5E1,1.7E1,4E0,8E0,3.2E1,1.12E2,1E1,4E0,4E0,5E0,3E1,1.3E1,4E0],"tree_param":{"num_deleted":"0","num_feature":"74","num_nodes":"29","size_leaf_vector":"1"}},{"base_weights":[-4.3181548E-4,-2.1770613E-2,4.1780584E-3,-1.1829876E-3,-0E0,1.4029251E-3,1.16928965E-2,-1.0530465E-2,4.8004687E-3,1.6888238E-2,2.6921954E-4,-2.5940197E-2,-1.0797974E-3,-1.0685741E-3,6.038875E-3,1.2643569E-2,1.7438394E-3,5.201901E-3,-3.573313E-4,-2.766509E-4,-1.7775813E-3,9.68727E-4,-4.542545E-4,3.8389018E-4,-6.7799684E-4,-0E0,7.1497523E-4,-2.021292E-4,5.9490063E-4],"categories":[],"categories_nodes":[],"categories_segments":[],"categories_sizes":[],"default_left":[0,0,0,0,0,0,0,0,0,0,0,0,0,0,0,0,0,0,0,0,0,0,0,0,0,0,0,0,0],"id":41,"left_children":[1,3,5,-1,-1,7,9,11,13,15,17,19,21,-1,23,25,-1,27,-1,-1,-1,-1,-1,-1,-1,-1,-1,-1,-1],"loss_changes":[2.8203728E-2,2.1379013E-3,4.732631E-3,0E0,0E0,7.0073996E-3,3.5035731E-3,5.2358164E-3,4.3836995E-3,2.2907583E-3,7.8590884E-4,2.1384358E-3,4.166699E-3,0E0,4.2531462E-3,7.8827236E-4,0E0,9.932825E-4,0E0,0E0,0E0,0E0,0E0,0E0,0E0,0E0,0E0,0E0,0E0],"parents":[2147483647,0,0,1,1,2,2,5,5,6,6,7,7,8,8,9,9,10,10,11,11,12,12,14,14,15,15,17,17],"right_children":[2,4,6,-1,-1,8,10,12,14,16,18,20,22,-1,24,26,-1,28,-1,-1,-1,-1,-1,-1,-1,-1,-1,-1,-1],"split_conditions":[3.56E2,5.00389E-1,1.14E3,-1.1829876E-3,-0E0,2.981774E1,1.882E3,1.1532833E3,1.5858911E-1,3.4264206E1,2.781808E2,9.356811E1,6.1583276E2,-1.0685741E-3,8.6834896E-1,3.8170055E-1,1.7438394E-3,5.536738E-1,-3.573313E-4,-2.766509E-4,-1.7775813E-3,9.68727E-4,-4.542545E-4,3.8389018E-4,-6.7799684E-4,-0E0,7.1497523E-4,-2.021292E-4,5.9490063E-4],"split_indices":[49,71,49,0,0,61,50,42,9,58,27,27,13,0,12,41,0,39,0,0,0,0,0,0,0,0,0,0,0],"split_type":[0,0,0,0,0,0,0,0,0,0,0,0,0,0,0,0,0,0,0,0,0,0,0,0,0,0,0,0,0],"sum_hessian":[2.83E2,5E1,2.33E2,4.6E1,4E0,1.72E2,6.1E1,3.7E1,1.35E2,4.1E1,2E1,1.3E1,2.4E1,5E0,1.3E2,3.5E1,6E0,1.3E1,7E0,5E0,8E0,6E0,1.8E1,1.21E2,9E0,4E0,3.1E1,5E0,8E0],"tree_param":{"num_deleted":"0","num_feature":"74","num_nodes":"29","size_leaf_vector":"1"}},{"base_weights":[1.2878438E-4,-1.1133872E-3,4.5569665E-3,1.9134868E-4,9.093744E-3,-4.136803E-3,1.1524644E-2,1.0959068E-2,-2.9742266E-3,3.0783855E-4,-1.8747384E-2,1.4967799E-2,-1.7247704E-4,2.2894177E-3,1.464156E-2,-7.5569362E-3,2.1282227E-4,2.877128E-4,-5.814915E-4,-1.0279763E-5,-1.430686E-3,1.0117522E-3,4.5806868E-4,6.7950325E-4,-3.113163E-4,7.9290115E-4,8.388007E-5,-4.8148455E-4,-5.7184603E-5],"categories":[],"categories_nodes":[],"categories_segments":[],"categories_sizes":[],"default_left":[0,0,0,0,0,0,0,0,0,0,0,0,0,0,0,0,0,0,0,0,0,0,0,0,0,0,0,0,0],"id":42,"left_children":[1,-1,3,5,7,9,11,13,15,17,19,21,-1,23,25,27,-1,-1,-1,-1,-1,-1,-1,-1,-1,-1,-1,-1,-1],"loss_changes":[2.888373E-2,0E0,4.7578383E-3,6.351186E-3,2.7912147E-3,6.164536E-3,2.0229183E-3,3.1174654E-3,5.953477E-4,4.6244096E-3,3.7305928E-3,4.3817097E-4,0E0,3.3339562E-3,9.334935E-4,2.7476694E-5,0E0,0E0,0E0,0E0,0E0,0E0,0E0,0E0,0E0,0E0,0E0,0E0,0E0],"parents":[2147483647,0,0,2,2,3,3,4,4,5,5,6,6,7,7,8,8,9,9,10,10,11,11,13,13,14,14,15,15],"right_children":[2,-1,4,6,8,10,12,14,16,18,20,22,-1,24,26,28,-1,-1,-1,-1,-1,-1,-1,-1,-1,-1,-1,-1,-1],"split_conditions":[2.2398895E1,-1.1133872E-3,1.032E3,6.7938515E1,4.20635E2,5.8534344E1,9.563933E-1,4.5700654E-1,7.7330065E-1,4.4973473E1,1.3455279E0,9.585629E-1,-1.7247704E-4,1.5734977E0,2.4641597E0,3.561975E0,2.1282227E-4,2.877128E-4,-5.814915E-4,-1.0279763E-5,-1.430686E-3,1.0117522E-3,4.5806868E-4,6.7950325E-4,-3.113163E-4,7.9290115E-4,8.388007E-5,-4.8148455E-4,-5.7184603E-5],"split_indices":[48,0,49,58,30,57,36,41,69,44,18,66,0,18,20,21,0,0,0,0,0,0,0,0,0,0,0,0,0],"split_type":[0,0,0,0,0,0,0,0,0,0,0,0,0,0,0,0,0,0,0,0,0,0,0,0,0,0,0,0,0],"sum_hessian":[2.91E2,4.7E1,2.44E2,1.26E2,1.18E2,9.1E1,3.5E1,1.03E2,1.5E1,7E1,2.1E1,2.9E1,6E0,3.2E1,7.1E1,1E1,5E0,4.9E1,2.1E1,8E0,1.3E1,1.3E1,1.6E1,1.4E1,1.8E1,6.4E1,7E0,6E0,4E0],"tree_param":{"num_deleted":"0","num_feature":"74","num_nodes":"29","size_leaf_vector":"1"}},{"base_weights":[6.7535264E-4,-2.0049373E-2,5.1118727E-3,-1.0473243E-3,-2.982735E-4,6.118357E-3,-1.2932995E-2,8.357477E-3,-5.6913967E-4,-2.3162273E-5,-8.929982E-4,1.23215215E-2,1.8545553E-3,4.350648E-3,-2.156959E-3,7.300565E-4,1.1786335E-4,-4.736553E-4,4.0514828E-4,6.1438733E-4,-6.329335E-4],"categories":[],"categories_nodes":[],"categories_segments":[],"categories_sizes":[],"default_left":[0,0,0,0,0,0,0,0,0,0,0,0,0,0,0,0,0,0,0,0,0],"id":43,"left_children":[1,3,5,-1,-1,7,9,11,13,-1,-1,15,17,19,-1,-1,-1,-1,-1,-1,-1],"loss_changes":[2.5605954E-2,2.2503361E-4,4.206376E-3,0E0,0E0,3.376944E-3,5.4575107E-4,4.114514E-3,1.2094524E-2,0E0,0E0,2.112886E-3,4.6637505E-3,6.9020684E-3,0E0,0E0,0E0,0E0,0E0,0E0,0E0],"parents":[2147483647,0,0,1,1,2,2,5,5,6,6,7,7,8,8,11,11,12,12,13,13],"right_children":[2,4,6,-1,-1,8,10,12,14,-1,-1,16,18,20,-1,-1,-1,-1,-1,-1,-1],"split_conditions":[3.56E2,5.5975178E1,7.826675E-1,-1.0473243E-3,-2.982735E-4,9.1312635E-1,3.9731915E1,9.38977E-1,5.6707584E1,-2.3162273E-5,-8.929982E-4,3.2194055E2,5.304518E1,1.261E3,-2.156959E-3,7.300565E-4,1.1786335E-4,-4.736553E-4,4.0514828E-4,6.1438733E-4,-6.329335E-4],"split_indices":[49,43,19,0,0,71,57,38,10,0,0,33,43,51,0,0,0,0,0,0,0],"split_type":[0,0,0,0,0,0,0,0,0,0,0,0,0,0,0,0,0,0,0,0,0],"sum_hessian":[2.78E2,4.8E1,2.3E2,4.4E1,4E0,2.19E2,1.1E1,1.65E2,5.4E1,4E0,7E0,1.01E2,6.4E1,4.9E1,5E0,8.1E1,2E1,2.2E1,4.2E1,3.4E1,1.5E1],"tree_param":{"num_deleted":"0","num_feature":"74","num_nodes":"21","size_leaf_vector":"1"}},{"base_weights":[1.3266016E-5,-1.8333249E-2,4.482762E-3,-0E0,-9.866544E-4,1.6165455E-3,1.3078703E-2,-1.5051831E-2,4.0842276E-3,1.5938615E-2,-2.5162422E-3,-5.485847E-3,-1.6669052E-3,-4.46483E-3,7.2666127E-3,1.5008557E-3,1.166365E-2,-3.241705E-4,-0E0,3.736992E-4,-6.4826116E-4,3.6167746E-4,-6.320567E-4,-5.549299E-4,4.5380904E-4,-0E0,6.522114E-4],"categories":[],"categories_nodes":[],"categories_segments":[],"categories_sizes":[],"default_left":[0,0,0,0,0,0,0,0,0,0,0,0,0,0,0,0,0,0,0,0,0,0,0,0,0,0,0],"id":44,"left_children":[1,3,5,-1,-1,7,9,11,13,15,17,19,-1,21,23,-1,25,-1,-1,-1,-1,-1,-1,-1,-1,-1,-1],"loss_changes":[2.3067586E-2,1.3731904E-3,5.449329E-3,0E0,0E0,7.06768E-3,2.6719393E-3,3.2772487E-3,4.1958336E-3,2.1219663E-3,1.5318976E-4,1.7027176E-3,0E0,4.0671453E-3,3.8026152E-3,0E0,6.497265E-4,0E0,0E0,0E0,0E0,0E0,0E0,0E0,0E0,0E0,0E0],"parents":[2147483647,0,0,1,1,2,2,5,5,6,6,7,7,8,8,9,9,10,10,11,11,13,13,14,14,16,16],"right_children":[2,4,6,-1,-1,8,10,12,14,16,18,20,-1,22,24,-1,26,-1,-1,-1,-1,-1,-1,-1,-1,-1,-1],"split_conditions":[2.6394114E1,8.843418E1,1.142E3,-0E0,-9.866544E-4,2.5156233E1,3.8171368E2,4.088529E-1,1.00563513E3,1.309E3,1.908311E1,3.2189066E2,-1.6669052E-3,1.669E3,-1.1958801E1,1.5008557E-3,3.8082135E-1,-3.241705E-4,-0E0,3.736992E-4,-6.4826116E-4,3.6167746E-4,-6.320567E-4,-5.549299E-4,4.5380904E-4,-0E0,6.522114E-4],"split_indices":[43,3,49,0,0,58,32,66,42,49,57,28,0,50,25,0,41,0,0,0,0,0,0,0,0,0,0],"split_type":[0,0,0,0,0,0,0,0,0,0,0,0,0,0,0,0,0,0,0,0,0,0,0,0,0,0,0],"sum_hessian":[2.81E2,5.4E1,2.27E2,4E0,5E1,1.72E2,5.5E1,2.1E1,1.51E2,4.7E1,8E0,1.5E1,6E0,4E1,1.11E2,9E0,3.8E1,4E0,4E0,5E0,1E1,1.6E1,2.4E1,9E0,1.02E2,4E0,3.4E1],"tree_param":{"num_deleted":"0","num_feature":"74","num_nodes":"27","size_leaf_vector":"1"}},{"base_weights":[-1.3284868E-4,-9.38735E-4,3.3009406E-3,5.3065387E-3,-4.6642637E-3,8.206868E-3,-9.476223E-4,-1.2980985E-2,4.1436628E-3,5.2047414E-3,1.3423738E-2,-1.1081636E-2,1.3283262E-2,1.4417402E-4,-1.6616287E-2,-7.5280895E-3,1.2898939E-2,4.982431E-4,-1.6197503E-4,7.543964E-4,-6.201019E-5,-8.344051E-4,6.5502943E-4,-8.992901E-5,8.358915E-4,-9.7595033E-4,-7.118931E-5,-6.789306E-4,-0E0,8.465469E-4,1.2757685E-5],"categories":[],"categories_nodes":[],"categories_segments":[],"categories_sizes":[],"default_left":[0,0,0,0,0,0,0,0,0,0,0,0,0,0,0,0,0,0,0,0,0,0,0,0,0,0,0,0,0,0,0],"id":45,"left_children":[1,-1,3,5,7,9,11,13,15,17,19,21,23,-1,25,27,29,-1,-1,-1,-1,-1,-1,-1,-1,-1,-1,-1,-1,-1,-1],"loss_changes":[1.807611E-2,0E0,3.8012734E-3,3.5268026E-3,3.5850566E-3,1.7955322E-3,8.778143E-3,1.6270438E-3,2.5011692E-3,3.5563572E-3,1.2797546E-3,5.135264E-3,1.4742515E-3,0E0,6.888723E-4,5.395509E-4,5.375352E-4,0E0,0E0,0E0,0E0,0E0,0E0,0E0,0E0,0E0,0E0,0E0,0E0,0E0,0E0],"parents":[2147483647,0,0,2,2,3,3,4,4,5,5,6,6,7,7,8,8,9,9,10,10,11,11,12,12,14,14,15,15,16,16],"right_children":[2,-1,4,6,8,10,12,14,16,18,20,22,24,-1,26,28,30,-1,-1,-1,-1,-1,-1,-1,-1,-1,-1,-1,-1,-1,-1],"split_conditions":[3.482403E1,-9.38735E-4,4.4973473E1,5.743481E1,8.615635E-1,3.970193E1,6.941759E1,4.7328277E0,1.4726272E0,1.3585212E3,6.870324E2,6.886423E2,2.4845367E1,1.4417402E-4,5.8992773E2,2.4027957E3,8.99611E2,4.982431E-4,-1.6197503E-4,7.543964E-4,-6.201019E-5,-8.344051E-4,6.5502943E-4,-8.992901E-5,8.358915E-4,-9.7595033E-4,-7.118931E-5,-6.789306E-4,-0E0,8.465469E-4,1.2757685E-5],"split_indices":[42,0,44,58,40,52,60,64,15,73,16,2,10,0,29,42,13,0,0,0,0,0,0,0,0,0,0,0,0,0,0],"split_type":[0,0,0,0,0,0,0,0,0,0,0,0,0,0,0,0,0,0,0,0,0,0,0,0,0,0,0,0,0,0,0],"sum_hessian":[2.78E2,4.3E1,2.35E2,1.89E2,4.6E1,1.3E2,5.9E1,2.4E1,2.2E1,8.5E1,4.5E1,3.5E1,2.4E1,4E0,2E1,9E0,1.3E1,5.5E1,3E1,4.1E1,4E0,2.9E1,6E0,4E0,2E1,1.6E1,4E0,5E0,4E0,9E0,4E0],"tree_param":{"num_deleted":"0","num_feature":"74","num_nodes":"31","size_leaf_vector":"1"}},{"base_weights":[5.390741E-4,-1.6917853E-2,3.8991407E-3,-0E0,-9.3189644E-4,-1.2222865E-3,6.958578E-3,1.2549683E-2,-5.361024E-3,1.665251E-3,1.1242825E-2,-1.136469E-4,8.379649E-4,3.488999E-5,-1.7292965E-2,1.3645134E-2,-2.3955458E-3,4.6848455E-3,1.4925286E-2,3.4800844E-4,-5.1005185E-4,-0E0,-1.1827153E-3,8.7003625E-4,-0E0,-1.0749757E-3,8.403963E-5,4.4231824E-4,-4.08785E-4,5.1169667E-5,8.232728E-4],"categories":[],"categories_nodes":[],"categories_segments":[],"categories_sizes":[],"default_left":[0,0,0,0,0,0,0,0,0,0,0,0,0,0,0,0,0,0,0,0,0,0,0,0,0,0,0,0,0,0,0],"id":46,"left_children":[1,3,5,-1,-1,7,9,11,13,15,17,-1,-1,19,21,23,25,27,29,-1,-1,-1,-1,-1,-1,-1,-1,-1,-1,-1,-1],"loss_changes":[1.7122116E-2,1.4849668E-3,3.9360328E-3,0E0,0E0,5.239261E-3,3.3899522E-3,1.4933036E-3,4.808813E-3,3.64783E-3,1.7866846E-3,0E0,0E0,3.5829244E-3,2.6338715E-3,1.0041746E-3,4.4395323E-3,1.8451726E-3,9.4305817E-4,0E0,0E0,0E0,0E0,0E0,0E0,0E0,0E0,0E0,0E0,0E0,0E0],"parents":[2147483647,0,0,1,1,2,2,5,5,6,6,7,7,8,8,9,9,10,10,13,13,14,14,15,15,16,16,17,17,18,18],"right_children":[2,4,6,-1,-1,8,10,12,14,16,18,-1,-1,20,22,24,26,28,30,-1,-1,-1,-1,-1,-1,-1,-1,-1,-1,-1,-1],"split_conditions":[7.53496E0,7.1033844E1,5.1142496E-1,-0E0,-9.3189644E-4,5.2802986E-1,-5.839793E-1,7.0237085E-2,9.9702686E-1,8.59E2,7.602486E-1,-1.136469E-4,8.379649E-4,1.7877709E0,9.248925E0,9.203919E-1,9.42E2,9.8474187E-1,5.949958E-1,3.4800844E-4,-5.1005185E-4,-0E0,-1.1827153E-3,8.7003625E-4,-0E0,-1.0749757E-3,8.403963E-5,4.4231824E-4,-4.08785E-4,5.1169667E-5,8.232728E-4],"split_indices":[44,3,41,0,0,11,25,65,37,49,65,0,0,4,46,5,49,38,40,0,0,0,0,0,0,0,0,0,0,0,0],"split_type":[0,0,0,0,0,0,0,0,0,0,0,0,0,0,0,0,0,0,0,0,0,0,0,0,0,0,0,0,0,0,0],"sum_hessian":[2.92E2,4.6E1,2.46E2,4E0,4.2E1,9.1E1,1.55E2,2E1,7.1E1,7.1E1,8.4E1,4E0,1.6E1,4.9E1,2.2E1,1.8E1,5.3E1,3.2E1,5.2E1,3E1,1.9E1,6E0,1.6E1,1.4E1,4E0,9E0,4.4E1,2.5E1,7E0,6E0,4.6E1],"tree_param":{"num_deleted":"0","num_feature":"74","num_nodes":"31","size_leaf_vector":"1"}},{"base_weights":[-6.6113047E-4,-1.5807966E-2,2.758884E-3,-8.511585E-4,-8.924993E-5,1.6976524E-3,1.8448234E-2,-1.0949744E-2,3.5099946E-3,7.204285E-5,1.2053549E-3,7.3438874E-3,-2.106011E-2,8.410996E-3,1.6907945E-4,-0E0,6.8131083E-4,-1.7093712E-3,-0E0,6.6012115E-4,1.4414442E-4,-1.1216215E-3,8.4148334E-5],"categories":[],"categories_nodes":[],"categories_segments":[],"categories_sizes":[],"default_left":[0,0,0,0,0,0,0,0,0,0,0,0,0,0,0,0,0,0,0,0,0,0,0],"id":47,"left_children":[1,3,5,-1,-1,7,9,11,13,-1,-1,15,17,19,21,-1,-1,-1,-1,-1,-1,-1,-1],"loss_changes":[1.4885985E-2,6.846925E-4,3.630031E-3,0E0,0E0,4.9838247E-3,1.0571796E-3,5.285619E-3,3.072926E-3,0E0,0E0,5.747158E-4,4.873072E-3,1.8406254E-3,3.8335458E-3,0E0,0E0,0E0,0E0,0E0,0E0,0E0,0E0],"parents":[2147483647,0,0,1,1,2,2,5,5,6,6,7,7,8,8,11,11,12,12,13,13,14,14],"right_children":[2,4,6,-1,-1,8,10,12,14,-1,-1,16,18,20,22,-1,-1,-1,-1,-1,-1,-1,-1],"split_conditions":[2.6394114E1,1.326E3,2.0069724E-1,-8.511585E-4,-8.924993E-5,7.7934527E0,7.884114E-1,1.549E3,1.5290564E2,7.204285E-5,1.2053549E-3,1.1637729E1,1.02239417E3,4.333496E-1,4.1508804E1,-0E0,6.8131083E-4,-1.7093712E-3,-0E0,6.6012115E-4,1.4414442E-4,-1.1216215E-3,8.4148334E-5],"split_indices":[43,51,56,0,0,54,71,50,48,0,0,46,42,72,43,0,0,0,0,0,0,0,0],"split_type":[0,0,0,0,0,0,0,0,0,0,0,0,0,0,0,0,0,0,0,0,0,0,0],"sum_hessian":[2.83E2,5.2E1,2.31E2,4.7E1,5E0,2.18E2,1.3E1,2.6E1,1.92E2,4E0,9E0,9E0,1.7E1,7.6E1,1.16E2,4E0,5E0,1E1,7E0,3.9E1,3.7E1,6E0,1.1E2],"tree_param":{"num_deleted":"0","num_feature":"74","num_nodes":"23","size_leaf_vector":"1"}},{"base_weights":[-0E0,-1.4962513E-2,3.3075546E-3,-7.647467E-5,-8.0731243E-4,-4.406365E-3,5.523947E-3,1.0175942E-2,-8.358723E-3,-2.4254275E-3,8.834957E-3,9.2925504E-4,-8.160344E-5,3.8916615E-4,-1.2095226E-2,8.040044E-4,-6.2107365E-3,7.5193956E-3,2.3001313E-2,2.498411E-4,-7.3922105E-4,-0E0,-1.1017625E-3,-3.1788455E-4,4.4522362E-4,1.5337805E-3,3.5959473E-4],"categories":[],"categories_nodes":[],"categories_segments":[],"categories_sizes":[],"default_left":[0,0,0,0,0,0,0,0,0,0,0,0,0,0,0,0,0,0,0,0,0,0,0,0,0,0,0],"id":48,"left_children":[1,3,5,-1,-1,7,9,11,13,15,17,-1,-1,-1,19,-1,21,23,25,-1,-1,-1,-1,-1,-1,-1,-1],"loss_changes":[1.4212473E-2,6.254064E-4,4.053329E-3,0E0,0E0,3.0638794E-3,4.9284874E-3,1.2921122E-3,2.6704823E-3,3.7838263E-3,1.9632466E-3,0E0,0E0,0E0,1.7804848E-3,0E0,4.5378096E-3,2.4270206E-3,6.139702E-4,0E0,0E0,0E0,0E0,0E0,0E0,0E0,0E0],"parents":[2147483647,0,0,1,1,2,2,5,5,6,6,7,7,8,8,9,9,10,10,14,14,16,16,17,17,18,18],"right_children":[2,4,6,-1,-1,8,10,12,14,16,18,-1,-1,-1,20,-1,22,24,26,-1,-1,-1,-1,-1,-1,-1,-1],"split_conditions":[2.6394114E1,8.843418E1,1.3416681E0,-7.647467E-5,-8.0731243E-4,2.7094916E-1,4.5700654E-1,1.3088355E0,1.2162856E0,1.431127E0,2.0069724E-1,9.2925504E-4,-8.160344E-5,3.8916615E-4,6.1586714E-1,8.040044E-4,9.216424E-1,2.1984131E0,6.2585276E-1,2.498411E-4,-7.3922105E-4,-0E0,-1.1017625E-3,-3.1788455E-4,4.4522362E-4,1.5337805E-3,3.5959473E-4],"split_indices":[43,3,4,0,0,72,41,18,15,18,56,0,0,0,35,0,37,22,6,0,0,0,0,0,0,0,0],"split_type":[0,0,0,0,0,0,0,0,0,0,0,0,0,0,0,0,0,0,0,0,0,0,0,0,0,0,0],"sum_hessian":[2.85E2,5.1E1,2.34E2,5E0,4.6E1,5.1E1,1.83E2,1E1,4.1E1,5.3E1,1.3E2,6E0,4E0,7E0,3.4E1,8E0,4.5E1,1.21E2,9E0,4E0,3E1,3.3E1,1.2E1,1E1,1.11E2,5E0,4E0],"tree_param":{"num_deleted":"0","num_feature":"74","num_nodes":"27","size_leaf_vector":"1"}},{"base_weights":[8.871998E-4,-1.4391012E-2,4.319859E-3,-0E0,-7.7146746E-4,1.619777E-2,2.9589967E-3,-0E0,1.9202173E-2,6.323801E-3,-1.1923288E-3,5.8463996E-4,1.3877316E-3,9.333164E-3,-3.9012157E-4,-1.6622191E-2,1.8991347E-3,5.399407E-4,-3.6609336E-4,3.090936E-4,-3.906896E-4,-2.0235222E-4,-2.199657E-3,-2.066165E-4,3.3456695E-4],"categories":[],"categories_nodes":[],"categories_segments":[],"categories_sizes":[],"default_left":[0,0,0,0,0,0,0,0,0,0,0,0,0,0,0,0,0,0,0,0,0,0,0,0,0],"id":49,"left_children":[1,3,5,-1,-1,7,9,-1,11,13,15,-1,-1,17,19,21,23,-1,-1,-1,-1,-1,-1,-1,-1],"loss_changes":[1.5485143E-2,7.1977545E-4,3.6884043E-3,0E0,0E0,1.0776417E-3,3.1319023E-3,0E0,5.6546926E-4,2.5782408E-3,4.8534824E-3,0E0,0E0,2.2131368E-3,1.9185789E-3,5.192849E-3,2.4233698E-3,0E0,0E0,0E0,0E0,0E0,0E0,0E0,0E0],"parents":[2147483647,0,0,1,1,2,2,5,5,6,6,8,8,9,9,10,10,13,13,14,14,15,15,16,16],"right_children":[2,4,6,-1,-1,8,10,-1,12,14,16,-1,-1,18,20,22,24,-1,-1,-1,-1,-1,-1,-1,-1],"split_conditions":[2.6394114E1,1.9752975E2,6.743063E1,-0E0,-7.7146746E-4,1.078E3,9.4004977E-1,-0E0,2.882781E-1,1.8507266E0,9.9167914E2,5.8463996E-4,1.3877316E-3,3.8685367E2,1.808E3,5.033959E1,5.8564496E-1,5.399407E-4,-3.6609336E-4,3.090936E-4,-3.906896E-4,-2.0235222E-4,-2.199657E-3,-2.066165E-4,3.3456695E-4],"split_indices":[43,2,26,0,0,51,38,0,9,15,42,0,0,26,50,64,41,0,0,0,0,0,0,0,0],"split_type":[0,0,0,0,0,0,0,0,0,0,0,0,0,0,0,0,0,0,0,0,0,0,0,0,0],"sum_hessian":[2.95E2,5.3E1,2.42E2,4E0,4.9E1,2.3E1,2.19E2,4E0,1.9E1,1.22E2,9.7E1,1.2E1,7E0,8.5E1,3.7E1,1.6E1,8.1E1,7.9E1,6E0,1.9E1,1.8E1,1.2E1,4E0,3.5E1,4.6E1],"tree_param":{"num_deleted":"0","num_feature":"74","num_nodes":"25","size_leaf_vector":"1"}},{"base_weights":[-0E0,-1.3648592E-2,3.2761067E-3,-1.4813923E-2,-0E0,1.6769955E-2,2.1526273E-3,-2.1952382E-4,-7.6974224E-4,-1.4000213E-5,1.350224E-3,3.7905094E-3,-6.7420076E-3,4.415087E-3,-8.726191E-4,-1.2759254E-2,6.2033976E-4,-4.480401E-4,2.5737294E-4,-1.3693105E-3,-1.408191E-4],"categories":[],"categories_nodes":[],"categories_segments":[],"categories_sizes":[],"default_left":[0,0,0,0,0,0,0,0,0,0,0,0,0,0,0,0,0,0,0,0,0],"id":50,"left_children":[1,3,5,7,-1,9,11,-1,-1,-1,-1,13,15,17,-1,19,-1,-1,-1,-1,-1],"loss_changes":[1.273565E-2,9.464454E-4,3.291809E-3,4.3371692E-5,0E0,3.2412754E-3,3.1428072E-3,0E0,0E0,0E0,0E0,2.3879618E-3,3.9641876E-3,1.7712936E-3,0E0,3.4021274E-3,0E0,0E0,0E0,0E0,0E0],"parents":[2147483647,0,0,1,1,2,2,3,3,5,5,6,6,11,11,12,12,13,13,15,15],"right_children":[2,4,6,8,-1,10,12,-1,-1,-1,-1,14,16,18,-1,20,-1,-1,-1,-1,-1],"split_conditions":[2.6394114E1,1.114E3,9.674559E2,1.3045734E0,-0E0,1.4343593E1,9.9863625E-1,-2.1952382E-4,-7.6974224E-4,-1.4000213E-5,1.350224E-3,8.6710656E-1,4.131764E0,1.1287735E0,-8.726191E-4,1.54378E5,6.2033976E-4,-4.480401E-4,2.5737294E-4,-1.3693105E-3,-1.408191E-4],"split_indices":[43,49,1,15,0,63,72,0,0,0,0,12,21,18,0,0,0,0,0,0,0],"split_type":[0,0,0,0,0,0,0,0,0,0,0,0,0,0,0,0,0,0,0,0,0],"sum_hessian":[2.85E2,5.4E1,2.31E2,5E1,4E0,1.6E1,2.15E2,4E0,4.6E1,6E0,1E1,1.83E2,3.2E1,1.79E2,4E0,2.5E1,7E0,8E0,1.71E2,9E0,1.6E1],"tree_param":{"num_deleted":"0","num_feature":"74","num_nodes":"21","size_leaf_vector":"1"}},{"base_weights":[2.5034684E-4,-6.912048E-4,3.1985773E-3,7.670171E-4,2.1685758E-3,4.15402E-3,-7.7616265E-3,8.75282E-3,5.312826E-4,-1.9082526E-3,-1.5059335E-3,5.1878183E-4,-3.1525936E-4,-7.974525E-5,5.2331266E-4,2.8656665E-4,-8.3763275E-4],"categories":[],"categories_nodes":[],"categories_segments":[],"categories_sizes":[],"default_left":[0,0,0,0,0,0,0,0,0,0,0,0,0,0,0,0,0],"id":51,"left_children":[1,-1,3,-1,5,7,9,11,13,-1,15,-1,-1,-1,-1,-1,-1],"loss_changes":[1.201292E-2,0E0,2.8181046E-3,0E0,4.4322344E-3,3.0512942E-3,6.583012E-3,2.109908E-3,2.3867562E-3,0E0,3.737255E-3,0E0,0E0,0E0,0E0,0E0,0E0],"parents":[2147483647,0,0,2,2,4,4,5,5,6,6,7,7,8,8,10,10],"right_children":[2,-1,4,-1,6,8,10,12,14,-1,16,-1,-1,-1,-1,-1,-1],"split_conditions":[2.6394114E1,-6.912048E-4,1.462E3,7.670171E-4,5.3404224E1,7.8051054E-1,7.974103E0,2.0813428E3,7.166782E1,-1.9082526E-3,6.777342E-1,5.1878183E-4,-3.1525936E-4,-7.974525E-5,5.2331266E-4,2.8656665E-4,-8.3763275E-4],"split_indices":[43,0,50,0,64,5,54,42,58,0,34,0,0,0,0,0,0],"split_type":[0,0,0,0,0,0,0,0,0,0,0,0,0,0,0,0,0],"sum_hessian":[2.9E2,4.9E1,2.41E2,1.7E1,2.24E2,1.88E2,3.6E1,8.1E1,1.07E2,5E0,3.1E1,7.4E1,7E0,8.8E1,1.9E1,2.1E1,1E1],"tree_param":{"num_deleted":"0","num_feature":"74","num_nodes":"17","size_leaf_vector":"1"}},{"base_weights":[-8.1544183E-4,-1.2480422E-2,1.998804E-3,-6.7828986E-4,-0E0,7.376567E-4,1.0704307E-3,-1.5518976E-2,2.1554157E-3,3.5415878E-4,-2.7462509E-2,-5.19418E-3,3.6876725E-3,-5.035805E-4,-1.8680453E-3,1.0282395E-4,-1.2263239E-3,3.4225278E-4,-8.20225E-5],"categories":[],"categories_nodes":[],"categories_segments":[],"categories_sizes":[],"default_left":[0,0,0,0,0,0,0,0,0,0,0,0,0,0,0,0,0,0,0],"id":52,"left_children":[1,3,5,-1,-1,-1,7,9,11,-1,13,15,17,-1,-1,-1,-1,-1,-1],"loss_changes":[9.61709E-3,8.752607E-4,2.584874E-3,0E0,0E0,0E0,3.8416511E-3,3.907659E-3,2.3352131E-3,0E0,6.986684E-4,5.1811542E-3,2.973641E-3,0E0,0E0,0E0,0E0,0E0,0E0],"parents":[2147483647,0,0,1,1,2,2,6,6,7,7,8,8,10,10,11,11,12,12],"right_children":[2,4,6,-1,-1,-1,8,10,12,-1,14,16,18,-1,-1,-1,-1,-1,-1],"split_conditions":[2.6394114E1,1.114E3,1.462E3,-6.7828986E-4,-0E0,7.376567E-4,6.1733128E1,1.3715262E2,4.3737442E1,3.5415878E-4,4.490099E0,6.1187572E1,4.1762966E1,-5.035805E-4,-1.8680453E-3,1.0282395E-4,-1.2263239E-3,3.4225278E-4,-8.20225E-5],"split_indices":[43,49,50,0,0,0,48,7,43,0,23,57,44,0,0,0,0,0,0],"split_type":[0,0,0,0,0,0,0,0,0,0,0,0,0,0,0,0,0,0,0],"sum_hessian":[2.88E2,5.6E1,2.32E2,5.2E1,4E0,1.4E1,2.18E2,1.2E1,2.06E2,4E0,8E0,3.4E1,1.72E2,4E0,4E0,2.5E1,9E0,1.09E2,6.3E1],"tree_param":{"num_deleted":"0","num_feature":"74","num_nodes":"19","size_leaf_vector":"1"}},{"base_weights":[-3.4358588E-4,-1.2121746E-2,2.1892204E-3,-0E0,-6.6045526E-4,-1.9814698E-3,4.715902E-3,1.6521028E-3,-1.1234053E-2,-2.8347343E-3,7.6737995E-3,-9.468776E-3,4.8685772E-3,6.898661E-4,-1.8327111E-2,1.3061413E-3,-1.4129101E-2,8.686229E-3,-4.0052258E-4,2.5883227E-4,-1.1174962E-3,4.2018152E-4,-1.7545618E-4,-3.255337E-4,-1.4837062E-3,5.1363924E-4,-1.4883392E-4,-9.939446E-4,-5.180743E-6,1.0414197E-3,3.7067212E-4,4.248213E-4,-3.5805252E-4],"categories":[],"categories_nodes":[],"categories_segments":[],"categories_sizes":[],"default_left":[0,0,0,0,0,0,0,0,0,0,0,0,0,0,0,0,0,0,0,0,0,0,0,0,0,0,0,0,0,0,0,0,0],"id":53,"left_children":[1,3,5,-1,-1,7,9,11,13,15,17,19,21,-1,23,25,27,29,31,-1,-1,-1,-1,-1,-1,-1,-1,-1,-1,-1,-1,-1,-1],"loss_changes":[8.747252E-3,5.5987155E-4,2.5447342E-3,0E0,0E0,3.1065536E-3,3.4202451E-3,2.289379E-3,4.9144365E-3,2.110964E-3,9.77376E-4,2.928528E-3,1.5888305E-3,0E0,2.2606608E-3,1.2940177E-3,7.658389E-4,1.0777013E-3,7.692663E-4,0E0,0E0,0E0,0E0,0E0,0E0,0E0,0E0,0E0,0E0,0E0,0E0,0E0,0E0],"parents":[2147483647,0,0,1,1,2,2,5,5,6,6,7,7,8,8,9,9,10,10,11,11,12,12,14,14,15,15,16,16,17,17,18,18],"right_children":[2,4,6,-1,-1,8,10,12,14,16,18,20,22,-1,24,26,28,30,32,-1,-1,-1,-1,-1,-1,-1,-1,-1,-1,-1,-1,-1,-1],"split_conditions":[2.6394114E1,8.843418E1,5.1142496E-1,-0E0,-6.6045526E-4,9.9762547E-1,1.3952199E0,4.34435E1,7.328414E1,6.696044E2,9.124741E-1,1.596E3,3.3649333E0,6.898661E-4,1.9226229E1,-9.822712E0,7.543613E2,1.6142496E1,3.311081E1,2.5883227E-4,-1.1174962E-3,4.2018152E-4,-1.7545618E-4,-3.255337E-4,-1.4837062E-3,5.1363924E-4,-1.4883392E-4,-9.939446E-4,-5.180743E-6,1.0414197E-3,3.7067212E-4,4.248213E-4,-3.5805252E-4],"split_indices":[43,3,41,0,0,37,4,43,26,13,34,50,21,0,54,23,13,44,57,0,0,0,0,0,0,0,0,0,0,0,0,0,0],"split_type":[0,0,0,0,0,0,0,0,0,0,0,0,0,0,0,0,0,0,0,0,0,0,0,0,0,0,0,0,0,0,0,0,0],"sum_hessian":[2.88E2,5.1E1,2.37E2,5E0,4.6E1,8.8E1,1.49E2,6.3E1,2.5E1,4.1E1,1.08E2,1.3E1,5E1,5E0,2E1,3E1,1.1E1,9.7E1,1.1E1,6E0,7E0,3.6E1,1.4E1,1.1E1,9E0,1E1,2E1,7E0,4E0,7E0,9E1,4E0,7E0],"tree_param":{"num_deleted":"0","num_feature":"74","num_nodes":"33","size_leaf_vector":"1"}},{"base_weights":[-1.388924E-4,-1.146833E-2,2.2374266E-3,-0E0,-6.3030643E-4,7.1443E-4,1.3796266E-3,-2.622079E-3,3.8075396E-3,-8.20397E-3,7.902334E-3,4.7611548E-3,-8.467296E-4,-5.3901103E-4,9.114908E-4,-8.333436E-5,4.9500226E-4,3.4753393E-4,-2.979346E-4],"categories":[],"categories_nodes":[],"categories_segments":[],"categories_sizes":[],"default_left":[0,0,0,0,0,0,0,0,0,0,0,0,0,0,0,0,0,0,0],"id":54,"left_children":[1,3,5,-1,-1,-1,7,9,11,13,15,17,-1,-1,-1,-1,-1,-1,-1],"loss_changes":[7.898531E-3,7.613278E-4,2.2942668E-3,0E0,0E0,0E0,2.2078918E-3,5.0025214E-3,2.7676546E-3,3.935627E-3,6.5320183E-4,3.2669138E-3,0E0,0E0,0E0,0E0,0E0,0E0,0E0],"parents":[2147483647,0,0,1,1,2,2,6,6,7,7,8,8,9,9,10,10,11,11],"right_children":[2,4,6,-1,-1,-1,8,10,12,14,16,18,-1,-1,-1,-1,-1,-1,-1],"split_conditions":[2.346844E1,9.34377E1,1.462E3,-0E0,-6.3030643E-4,7.1443E-4,1.738E3,6.840565E2,3.403337E0,8.162429E1,6.7411435E-1,4.3145364E2,-8.467296E-4,-5.3901103E-4,9.114908E-4,-8.333436E-5,4.9500226E-4,3.4753393E-4,-2.979346E-4],"split_indices":[43,7,50,0,0,0,50,2,15,63,39,28,0,0,0,0,0,0,0],"split_type":[0,0,0,0,0,0,0,0,0,0,0,0,0,0,0,0,0,0,0],"sum_hessian":[2.88E2,5E1,2.38E2,4E0,4.6E1,1.4E1,2.24E2,8.3E1,1.41E2,5.5E1,2.8E1,1.36E2,5E0,5.1E1,4E0,4E0,2.4E1,1.14E2,2.2E1],"tree_param":{"num_deleted":"0","num_feature":"74","num_nodes":"19","size_leaf_vector":"1"}},{"base_weights":[-2.4623485E-4,-1.1087477E-2,2.1011839E-3,-0E0,-5.920701E-4,3.8389224E-3,-6.013399E-3,6.2329806E-3,-8.1957097E-4,-1.3121448E-2,5.2880193E-3,1.87064E-2,4.4950806E-3,-6.5333284E-3,9.03506E-3,-3.335897E-3,-2.05565E-2,-1.9224132E-4,6.964829E-4,1.412431E-3,-0E0,-1.1301934E-3,2.9979806E-4,2.4370682E-4,-7.282069E-4,5.8078225E-4,-5.4714586E-5,-4.3740027E-4,-0E0,-1.3442769E-3,-4.47905E-4],"categories":[],"categories_nodes":[],"categories_segments":[],"categories_sizes":[],"default_left":[0,0,0,0,0,0,0,0,0,0,0,0,0,0,0,0,0,0,0,0,0,0,0,0,0,0,0,0,0,0,0],"id":55,"left_children":[1,3,5,-1,-1,7,9,11,13,15,17,19,21,23,25,27,29,-1,-1,-1,-1,-1,-1,-1,-1,-1,-1,-1,-1,-1,-1],"loss_changes":[7.417004E-3,3.380305E-4,3.329181E-3,0E0,0E0,2.245172E-3,3.4412935E-3,2.5236588E-3,3.750272E-3,1.5841597E-3,1.4171693E-3,2.7309032E-3,4.7281096E-3,4.107168E-3,7.452762E-4,2.3797124E-4,4.2841397E-4,0E0,0E0,0E0,0E0,0E0,0E0,0E0,0E0,0E0,0E0,0E0,0E0,0E0,0E0],"parents":[2147483647,0,0,1,1,2,2,5,5,6,6,7,7,8,8,9,9,10,10,11,11,12,12,13,13,14,14,15,15,16,16],"right_children":[2,4,6,-1,-1,8,10,12,14,16,18,20,22,24,26,28,30,-1,-1,-1,-1,-1,-1,-1,-1,-1,-1,-1,-1,-1,-1],"split_conditions":[2.346844E1,2.4946947E0,4.1637515E2,-0E0,-5.920701E-4,5.6089676E1,5.228129E2,9.674559E2,5.6479042E1,1.5113791E1,5.8008105E-1,1.944E3,4.0411177E0,1.68E3,9.6066624E-1,4.3354077E2,9.6363837E-1,-1.9224132E-4,6.964829E-4,1.412431E-3,-0E0,-1.1301934E-3,2.9979806E-4,2.4370682E-4,-7.282069E-4,5.8078225E-4,-5.4714586E-5,-4.3740027E-4,-0E0,-1.3442769E-3,-4.47905E-4],"split_indices":[43,22,27,0,0,58,30,1,43,54,41,50,54,50,36,27,36,0,0,0,0,0,0,0,0,0,0,0,0,0,0],"split_type":[0,0,0,0,0,0,0,0,0,0,0,0,0,0,0,0,0,0,0,0,0,0,0,0,0,0,0,0,0,0,0],"sum_hessian":[2.86E2,5.1E1,2.35E2,4E0,4.7E1,1.95E2,4E1,1.3E2,6.5E1,2.5E1,1.5E1,1.4E1,1.16E2,4.2E1,2.3E1,1.2E1,1.3E1,7E0,8E0,9E0,5E0,5E0,1.11E2,1.7E1,2.5E1,1.9E1,4E0,4E0,8E0,7E0,6E0],"tree_param":{"num_deleted":"0","num_feature":"74","num_nodes":"31","size_leaf_vector":"1"}},{"base_weights":[-4.989567E-4,-1.0684962E-2,1.9706814E-3,-5.924746E-4,6.651154E-5,3.72792E-3,-3.5474028E-3,6.1125923E-3,-2.8627764E-3,-2.033031E-2,1.2024403E-4,8.437113E-3,-0E0,6.744371E-3,-9.293701E-3,-1.4303914E-4,-1.4916598E-3,5.2250745E-3,-8.514776E-3,4.8781146E-4,-1.1776324E-4,-6.496027E-4,1.7934707E-4,-1.9057503E-4,5.373435E-4,-9.442486E-4,1.2283048E-4,-1.10310815E-4,4.889357E-4,-6.150037E-4,1.3644602E-5],"categories":[],"categories_nodes":[],"categories_segments":[],"categories_sizes":[],"default_left":[0,0,0,0,0,0,0,0,0,0,0,0,0,0,0,0,0,0,0,0,0,0,0,0,0,0,0,0,0,0,0],"id":56,"left_children":[1,3,5,-1,-1,7,9,11,13,15,17,19,21,23,25,-1,-1,27,29,-1,-1,-1,-1,-1,-1,-1,-1,-1,-1,-1,-1],"loss_changes":[7.076341E-3,8.905181E-4,2.177369E-3,0E0,0E0,2.7375445E-3,3.4668949E-3,1.803807E-3,2.8684011E-3,1.2478237E-3,1.9511272E-3,1.4067371E-3,1.7234659E-3,8.7081303E-4,3.3662878E-3,0E0,0E0,1.0786417E-3,6.558512E-4,0E0,0E0,0E0,0E0,0E0,0E0,0E0,0E0,0E0,0E0,0E0,0E0],"parents":[2147483647,0,0,1,1,2,2,5,5,6,6,7,7,8,8,9,9,10,10,11,11,12,12,13,13,14,14,17,17,18,18],"right_children":[2,4,6,-1,-1,8,10,12,14,16,18,20,22,24,26,-1,-1,28,30,-1,-1,-1,-1,-1,-1,-1,-1,-1,-1,-1,-1],"split_conditions":[3.56E2,1.375E2,4.6094016E2,-5.924746E-4,6.651154E-5,5.6089676E1,4.801527E2,1.8153208E0,1.669E3,4.71226E2,7.843239E-1,9.826319E-1,1.006E3,5.703855E1,6.3613975E-1,-1.4303914E-4,-1.4916598E-3,5.417457E1,1.901E3,4.8781146E-4,-1.1776324E-4,-6.496027E-4,1.7934707E-4,-1.9057503E-4,5.373435E-4,-9.442486E-4,1.2283048E-4,-1.10310815E-4,4.889357E-4,-6.150037E-4,1.3644602E-5],"split_indices":[49,53,3,0,0,58,30,18,50,3,12,71,49,59,34,0,0,60,50,0,0,0,0,0,0,0,0,0,0,0,0],"split_type":[0,0,0,0,0,0,0,0,0,0,0,0,0,0,0,0,0,0,0,0,0,0,0,0,0,0,0,0,0,0,0],"sum_hessian":[2.76E2,5.4E1,2.22E2,5E1,4E0,1.7E2,5.2E1,1.26E2,4.4E1,9E0,4.3E1,9.1E1,3.5E1,1.7E1,2.7E1,4E0,5E0,2.8E1,1.5E1,8.2E1,9E0,7E0,2.8E1,4E0,1.3E1,1.5E1,1.2E1,1E1,1.8E1,1.1E1,4E0],"tree_param":{"num_deleted":"0","num_feature":"74","num_nodes":"31","size_leaf_vector":"1"}},{"base_weights":[-3.725862E-4,-1.0418912E-2,1.973302E-3,-5.415163E-4,-9.8707584E-5,9.598261E-3,3.503191E-4,1.3272157E-2,8.505917E-4,2.4926767E-3,-7.2971885E-3,1.1657738E-3,1.0210127E-2,-2.0398344E-4,3.8961167E-4,-1.0220122E-3,3.2860008E-3,-1.7547865E-3,-2.452756E-3,5.8203517E-4,2.2289662E-5,4.380641E-4,2.7335007E-6,-5.552489E-4,3.1288108E-4],"categories":[],"categories_nodes":[],"categories_segments":[],"categories_sizes":[],"default_left":[0,0,0,0,0,0,0,0,0,0,0,0,0,0,0,0,0,0,0,0,0,0,0,0,0],"id":57,"left_children":[1,3,5,-1,-1,7,9,11,13,15,17,-1,19,-1,-1,-1,21,-1,23,-1,-1,-1,-1,-1,-1],"loss_changes":[7.0810136E-3,4.8608985E-5,2.8671948E-3,0E0,0E0,1.1651427E-3,3.2468836E-3,2.8777262E-4,5.480528E-4,2.7701561E-3,5.3291647E-3,0E0,2.0919275E-4,0E0,0E0,0E0,2.6359977E-3,0E0,2.9818004E-3,0E0,0E0,0E0,0E0,0E0,0E0],"parents":[2147483647,0,0,1,1,2,2,5,5,6,6,7,7,8,8,9,9,10,10,12,12,16,16,18,18],"right_children":[2,4,6,-1,-1,8,10,12,14,16,18,-1,20,-1,-1,-1,22,-1,24,-1,-1,-1,-1,-1,-1],"split_conditions":[2.6394114E1,1.006E3,2.630357E-1,-5.415163E-4,-9.8707584E-5,5.6114708E1,9.097011E-1,3.4259254E1,5.8852637E-1,2.7474183E-1,2.0978612E-1,1.1657738E-3,1.122E3,-2.0398344E-4,